svm_type c_svc
kernel_type rbf
gamma 0.00324675
nr_class 143
total_sv 143
rho 0 0 0 0 0 0 0 0 0 0 0 0 0 0 0 0 0 0 0 0 0 0 0 0 0 0 0 0 0 0 0 0 0 0 0 0 0 0 0 0 0 0 0 0 0 0 0 0 0 0 0 0 0 0 0 0 0 0 0 0 0 0 0 0 0 0 0 0 0 0 0 0 0 0 0 0 0 0 0 0 0 0 0 0 0 0 0 0 0 0 0 0 0 0 0 0 0 0 0 0 0 0 0 0 0 0 0 0 0 0 0 0 0 0 0 0 0 0 0 0 0 0 0 0 0 0 0 0 0 0 0 0 0 0 0 0 0 0 0 0 0 0 0 0 0 0 0 0 0 0 0 0 0 0 0 0 0 0 0 0 0 0 0 0 0 0 0 0 0 0 0 0 0 0 0 0 0 0 0 0 0 0 0 0 0 0 0 0 0 0 0 0 0 0 0 0 0 0 0 0 0 0 0 0 0 0 0 0 0 0 0 0 0 0 0 0 0 0 0 0 0 0 0 0 0 0 0 0 0 0 0 0 0 0 0 0 0 0 0 0 0 0 0 0 0 0 0 0 0 0 0 0 0 0 0 0 0 0 0 0 0 0 0 0 0 0 0 0 0 0 0 0 0 0 0 0 0 0 0 0 0 0 0 0 0 0 0 0 0 0 0 0 0 0 0 0 0 0 0 0 0 0 0 0 0 0 0 0 0 0 0 0 0 0 0 0 0 0 0 0 0 0 0 0 0 0 0 0 0 0 0 0 0 0 0 0 0 0 0 0 0 0 0 0 0 0 0 0 0 0 0 0 0 0 0 0 0 0 0 0 0 0 0 0 0 0 0 0 0 0 0 0 0 0 0 0 0 0 0 0 0 0 0 0 0 0 0 0 0 0 0 0 0 0 0 0 0 0 0 0 0 0 0 0 0 0 0 0 0 0 0 0 0 0 0 0 0 0 0 0 0 0 0 0 0 0 0 0 0 0 0 0 0 0 0 0 0 0 0 0 0 0 0 0 0 0 0 0 0 0 0 0 0 0 0 0 0 0 0 0 0 0 0 0 0 0 0 0 0 0 0 0 0 0 0 0 0 0 0 0 0 0 0 0 0 0 0 0 0 0 0 0 0 0 0 0 0 0 0 0 0 0 0 0 0 0 0 0 0 0 0 0 0 0 0 0 0 0 0 0 0 0 0 0 0 0 0 0 0 0 0 0 0 0 0 0 0 0 0 0 0 0 0 0 0 0 0 0 0 0 0 0 0 0 0 0 0 0 0 0 0 0 0 0 0 0 0 0 0 0 0 0 0 0 0 0 0 0 0 0 0 0 0 0 0 0 0 0 0 0 0 0 0 0 0 0 0 0 0 0 0 0 0 0 0 0 0 0 0 0 0 0 0 0 0 0 0 0 0 0 0 0 0 0 0 0 0 0 0 0 0 0 0 0 0 0 0 0 0 0 0 0 0 0 0 0 0 0 0 0 0 0 0 0 0 0 0 0 0 0 0 0 0 0 0 0 0 0 0 0 0 0 0 0 0 0 0 0 0 0 0 0 0 0 0 0 0 0 0 0 0 0 0 0 0 0 0 0 0 0 0 0 0 0 0 0 0 0 0 0 0 0 0 0 0 0 0 0 0 0 0 0 0 0 0 0 0 0 0 0 0 0 0 0 0 0 0 0 0 0 0 0 0 0 0 0 0 0 0 0 0 0 0 0 0 0 0 0 0 0 0 0 0 0 0 0 0 0 0 0 0 0 0 0 0 0 0 0 0 0 0 0 0 0 0 0 0 0 0 0 0 0 0 0 0 0 0 0 0 0 0 0 0 0 0 0 0 0 0 0 0 0 0 0 0 0 0 0 0 0 0 0 0 0 0 0 0 0 0 0 0 0 0 0 0 0 0 0 0 0 0 0 0 0 0 0 0 0 0 0 0 0 0 0 0 0 0 0 0 0 0 0 0 0 0 0 0 0 0 0 0 0 0 0 0 0 0 0 0 0 0 0 0 0 0 0 0 0 0 0 0 0 0 0 0 0 0 0 0 0 0 0 0 0 0 0 0 0 0 0 0 0 0 0 0 0 0 0 0 0 0 0 0 0 0 0 0 0 0 0 0 0 0 0 0 0 0 0 0 0 0 0 0 0 0 0 0 0 0 0 0 0 0 0 0 0 0 0 0 0 0 0 0 0 0 0 0 0 0 0 0 0 0 0 0 0 0 0 0 0 0 0 0 0 0 0 0 0 0 0 0 0 0 0 0 0 0 0 0 0 0 0 0 0 0 0 0 0 0 0 0 0 0 0 0 0 0 0 0 0 0 0 0 0 0 0 0 0 0 0 0 0 0 0 0 0 0 0 0 0 0 0 0 0 0 0 0 0 0 0 0 0 0 0 0 0 0 0 0 0 0 0 0 0 0 0 0 0 0 0 0 0 0 0 0 0 0 0 0 0 0 0 0 0 0 0 0 0 0 0 0 0 0 0 0 0 0 0 0 0 0 0 0 0 0 0 0 0 0 0 0 0 0 0 0 0 0 0 0 0 0 0 0 0 0 0 0 0 0 0 0 0 0 0 0 0 0 0 0 0 0 0 0 0 0 0 0 0 0 0 0 0 0 0 0 0 0 0 0 0 0 0 0 0 0 0 0 0 0 0 0 0 0 0 0 0 0 0 0 0 0 0 0 0 0 0 0 0 0 0 0 0 0 0 0 0 0 0 0 0 0 0 0 0 0 0 0 0 0 0 0 0 0 0 0 0 0 0 0 0 0 0 0 0 0 0 0 0 0 0 0 0 0 0 0 0 0 0 0 0 0 0 0 0 0 0 0 0 0 0 0 0 0 0 0 0 0 0 0 0 0 0 0 0 0 0 0 0 0 0 0 0 0 0 0 0 0 0 0 0 0 0 0 0 0 0 0 0 0 0 0 0 0 0 0 0 0 0 0 0 0 0 0 0 0 0 0 0 0 0 0 0 0 0 0 0 0 0 0 0 0 0 0 0 0 0 0 0 0 0 0 0 0 0 0 0 0 0 0 0 0 0 0 0 0 0 0 0 0 0 0 0 0 0 0 0 0 0 0 0 0 0 0 0 0 0 0 0 0 0 0 0 0 0 0 0 0 0 0 0 0 0 0 0 0 0 0 0 0 0 0 0 0 0 0 0 0 0 0 0 0 0 0 0 0 0 0 0 0 0 0 0 0 0 0 0 0 0 0 0 0 0 0 0 0 0 0 0 0 0 0 0 0 0 0 0 0 0 0 0 0 0 0 0 0 0 0 0 0 0 0 0 0 0 0 0 0 0 0 0 0 0 0 0 0 0 0 0 0 0 0 0 0 0 0 0 0 0 0 0 0 0 0 0 0 0 0 0 0 0 0 0 0 0 0 0 0 0 0 0 0 0 0 0 0 0 0 0 0 0 0 0 0 0 0 0 0 0 0 0 0 0 0 0 0 0 0 0 0 0 0 0 0 0 0 0 0 0 0 0 0 0 0 0 0 0 0 0 0 0 0 0 0 0 0 0 0 0 0 0 0 0 0 0 0 0 0 0 0 0 0 0 0 0 0 0 0 0 0 0 0 0 0 0 0 0 0 0 0 0 0 0 0 0 0 0 0 0 0 0 0 0 0 0 0 0 0 0 0 0 0 0 0 0 0 0 0 0 0 0 0 0 0 0 0 0 0 0 0 0 0 0 0 0 0 0 0 0 0 0 0 0 0 0 0 0 0 0 0 0 0 0 0 0 0 0 0 0 0 0 0 0 0 0 0 0 0 0 0 0 0 0 0 0 0 0 0 0 0 0 0 0 0 0 0 0 0 0 0 0 0 0 0 0 0 0 0 0 0 0 0 0 0 0 0 0 0 0 0 0 0 0 0 0 0 0 0 0 0 0 0 0 0 0 0 0 0 0 0 0 0 0 0 0 0 0 0 0 0 0 0 0 0 0 0 0 0 0 0 0 0 0 0 0 0 0 0 0 0 0 0 0 0 0 0 0 0 0 0 0 0 0 0 0 0 0 0 0 0 0 0 0 0 0 0 0 0 0 0 0 0 0 0 0 0 0 0 0 0 0 0 0 0 0 0 0 0 0 0 0 0 0 0 0 0 0 0 0 0 0 0 0 0 0 0 0 0 0 0 0 0 0 0 0 0 0 0 0 0 0 0 0 0 0 0 0 0 0 0 0 0 0 0 0 0 0 0 0 0 0 0 0 0 0 0 0 0 0 0 0 0 0 0 0 0 0 0 0 0 0 0 0 0 0 0 0 0 0 0 0 0 0 0 0 0 0 0 0 0 0 0 0 0 0 0 0 0 0 0 0 0 0 0 0 0 0 0 0 0 0 0 0 0 0 0 0 0 0 0 0 0 0 0 0 0 0 0 0 0 0 0 0 0 0 0 0 0 0 0 0 0 0 0 0 0 0 0 0 0 0 0 0 0 0 0 0 0 0 0 0 0 0 0 0 0 0 0 0 0 0 0 0 0 0 0 0 0 0 0 0 0 0 0 0 0 0 0 0 0 0 0 0 0 0 0 0 0 0 0 0 0 0 0 0 0 0 0 0 0 0 0 0 0 0 0 0 0 0 0 0 0 0 0 0 0 0 0 0 0 0 0 0 0 0 0 0 0 0 0 0 0 0 0 0 0 0 0 0 0 0 0 0 0 0 0 0 0 0 0 0 0 0 0 0 0 0 0 0 0 0 0 0 0 0 0 0 0 0 0 0 0 0 0 0 0 0 0 0 0 0 0 0 0 0 0 0 0 0 0 0 0 0 0 0 0 0 0 0 0 0 0 0 0 0 0 0 0 0 0 0 0 0 0 0 0 0 0 0 0 0 0 0 0 0 0 0 0 0 0 0 0 0 0 0 0 0 0 0 0 0 0 0 0 0 0 0 0 0 0 0 0 0 0 0 0 0 0 0 0 0 0 0 0 0 0 0 0 0 0 0 0 0 0 0 0 0 0 0 0 0 0 0 0 0 0 0 0 0 0 0 0 0 0 0 0 0 0 0 0 0 0 0 0 0 0 0 0 0 0 0 0 0 0 0 0 0 0 0 0 0 0 0 0 0 0 0 0 0 0 0 0 0 0 0 0 0 0 0 0 0 0 0 0 0 0 0 0 0 0 0 0 0 0 0 0 0 0 0 0 0 0 0 0 0 0 0 0 0 0 0 0 0 0 0 0 0 0 0 0 0 0 0 0 0 0 0 0 0 0 0 0 0 0 0 0 0 0 0 0 0 0 0 0 0 0 0 0 0 0 0 0 0 0 0 0 0 0 0 0 0 0 0 0 0 0 0 0 0 0 0 0 0 0 0 0 0 0 0 0 0 0 0 0 0 0 0 0 0 0 0 0 0 0 0 0 0 0 0 0 0 0 0 0 0 0 0 0 0 0 0 0 0 0 0 0 0 0 0 0 0 0 0 0 0 0 0 0 0 0 0 0 0 0 0 0 0 0 0 0 0 0 0 0 0 0 0 0 0 0 0 0 0 0 0 0 0 0 0 0 0 0 0 0 0 0 0 0 0 0 0 0 0 0 0 0 0 0 0 0 0 0 0 0 0 0 0 0 0 0 0 0 0 0 0 0 0 0 0 0 0 0 0 0 0 0 0 0 0 0 0 0 0 0 0 0 0 0 0 0 0 0 0 0 0 0 0 0 0 0 0 0 0 0 0 0 0 0 0 0 0 0 0 0 0 0 0 0 0 0 0 0 0 0 0 0 0 0 0 0 0 0 0 0 0 0 0 0 0 0 0 0 0 0 0 0 0 0 0 0 0 0 0 0 0 0 0 0 0 0 0 0 0 0 0 0 0 0 0 0 0 0 0 0 0 0 0 0 0 0 0 0 0 0 0 0 0 0 0 0 0 0 0 0 0 0 0 0 0 0 0 0 0 0 0 0 0 0 0 0 0 0 0 0 0 0 0 0 0 0 0 0 0 0 0 0 0 0 0 0 0 0 0 0 0 0 0 0 0 0 0 0 0 0 0 0 0 0 0 0 0 0 0 0 0 0 0 0 0 0 0 0 0 0 0 0 0 0 0 0 0 0 0 0 0 0 0 0 0 0 0 0 0 0 0 0 0 0 0 0 0 0 0 0 0 0 0 0 0 0 0 0 0 0 0 0 0 0 0 0 0 0 0 0 0 0 0 0 0 0 0 0 0 0 0 0 0 0 0 0 0 0 0 0 0 0 0 0 0 0 0 0 0 0 0 0 0 0 0 0 0 0 0 0 0 0 0 0 0 0 0 0 0 0 0 0 0 0 0 0 0 0 0 0 0 0 0 0 0 0 0 0 0 0 0 0 0 0 0 0 0 0 0 0 0 0 0 0 0 0 0 0 0 0 0 0 0 0 0 0 0 0 0 0 0 0 0 0 0 0 0 0 0 0 0 0 0 0 0 0 0 0 0 0 0 0 0 0 0 0 0 0 0 0 0 0 0 0 0 0 0 0 0 0 0 0 0 0 0 0 0 0 0 0 0 0 0 0 0 0 0 0 0 0 0 0 0 0 0 0 0 0 0 0 0 0 0 0 0 0 0 0 0 0 0 0 0 0 0 0 0 0 0 0 0 0 0 0 0 0 0 0 0 0 0 0 0 0 0 0 0 0 0 0 0 0 0 0 0 0 0 0 0 0 0 0 0 0 0 0 0 0 0 0 0 0 0 0 0 0 0 0 0 0 0 0 0 0 0 0 0 0 0 0 0 0 0 0 0 0 0 0 0 0 0 0 0 0 0 0 0 0 0 0 0 0 0 0 0 0 0 0 0 0 0 0 0 0 0 0 0 0 0 0 0 0 0 0 0 0 0 0 0 0 0 0 0 0 0 0 0 0 0 0 0 0 0 0 0 0 0 0 0 0 0 0 0 0 0 0 0 0 0 0 0 0 0 0 0 0 0 0 0 0 0 0 0 0 0 0 0 0 0 0 0 0 0 0 0 0 0 0 0 0 0 0 0 0 0 0 0 0 0 0 0 0 0 0 0 0 0 0 0 0 0 0 0 0 0 0 0 0 0 0 0 0 0 0 0 0 0 0 0 0 0 0 0 0 0 0 0 0 0 0 0 0 0 0 0 0 0 0 0 0 0 0 0 0 0 0 0 0 0 0 0 0 0 0 0 0 0 0 0 0 0 0 0 0 0 0 0 0 0 0 0 0 0 0 0 0 0 0 0 0 0 0 0 0 0 0 0 0 0 0 0 0 0 0 0 0 0 0 0 0 0 0 0 0 0 0 0 0 0 0 0 0 0 0 0 0 0 0 0 0 0 0 0 0 0 0 0 0 0 0 0 0 0 0 0 0 0 0 0 0 0 0 0 0 0 0 0 0 0 0 0 0 0 0 0 0 0 0 0 0 0 0 0 0 0 0 0 0 0 0 0 0 0 0 0 0 0 0 0 0 0 0 0 0 0 0 0 0 0 0 0 0 0 0 0 0 0 0 0 0 0 0 0 0 0 0 0 0 0 0 0 0 0 0 0 0 0 0 0 0 0 0 0 0 0 0 0 0 0 0 0 0 0 0 0 0 0 0 0 0 0 0 0 0 0 0 0 0 0 0 0 0 0 0 0 0 0 0 0 0 0 0 0 0 0 0 0 0 0 0 0 0 0 0 0 0 0 0 0 0 0 0 0 0 0 0 0 0 0 0 0 0 0 0 0 0 0 0 0 0 0 0 0 0 0 0 0 0 0 0 0 0 0 0 0 0 0 0 0 0 0 0 0 0 0 0 0 0 0 0 0 0 0 0 0 0 0 0 0 0 0 0 0 0 0 0 0 0 0 0 0 0 0 0 0 0 0 0 0 0 0 0 0 0 0 0 0 0 0 0 0 0 0 0 0 0 0 0 0 0 0 0 0 0 0 0 0 0 0 0 0 0 0 0 0 0 0 0 0 0 0 0 0 0 0 0 0 0 0 0 0 0 0 0 0 0 0 0 0 0 0 0 0 0 0 0 0 0 0 0 0 0 0 0 0 0 0 0 0 0 0 0 0 0 0 0 0 0 0 0 0 0 0 0 0 0 0 0 0 0 0 0 0 0 0 0 0 0 0 0 0 0 0 0 0 0 0 0 0 0 0 0 0 0 0 0 0 0 0 0 0 0 0 0 0 0 0 0 0 0 0 0 0 0 0 0 0 0 0 0 0 0 0 0 0 0 0 0 0 0 0 0 0 0 0 0 0 0 0 0 0 0 0 0 0 0 0 0 0 0 0 0 0 0 0 0 0 0 0 0 0 0 0 0 0 0 0 0 0 0 0 0 0 0 0 0 0 0 0 0 0 0 0 0 0 0 0 0 0 0 0 0 0 0 0 0 0 0 0 0 0 0 0 0 0 0 0 0 0 0 0 0 0 0 0 0 0 0 0 0 0 0 0 0 0 0 0 0 0 0 0 0 0 0 0 0 0 0 0 0 0 0 0 0 0 0 0 0 0 0 0 0 0 0 0 0 0 0 0 0 0 0 0 0 0 0 0 0 0 0 0 0 0 0 0 0 0 0 0 0 0 0 0 0 0 0 0 0 0 0 0 0 0 0 0 0 0 0 0 0 0 0 0 0 0 0 0 0 0 0 0 0 0 0 0 0 0 0 0 0 0 0 0 0 0 0 0 0 0 0 0 0 0 0 0 0 0 0 0 0 0 0 0 0 0 0 0 0 0 0 0 0 0 0 0 0 0 0 0 0 0 0 0 0 0 0 0 0 0 0 0 0 0 0 0 0 0 0 0 0 0 0 0 0 0 0 0 0 0 0 0 0 0 0 0 0 0 0 0 0 0 0 0 0 0 0 0 0 0 0 0 0 0 0 0 0 0 0 0 0 0 0 0 0 0 0 0 0 0 0 0 0 0 0 0 0 0 0 0 0 0 0 0 0 0 0 0 0 0 0 0 0 0 0 0 0 0 0 0 0 0 0 0 0 0 0 0 0 0 0 0 0 0 0 0 0 0 0 0 0 0 0 0 0 0 0 0 0 0 0 0 0 0 0 0 0 0 0 0 0 0 0 0 0 0 0 0 0 0 0 0 0 0 0 0 0 0 0 0 0 0 0 0 0 0 0 0 0 0 0 0 0 0 0 0 0 0 0 0 0 0 0 0 0 0 0 0 0 0 0 0 0 0 0 0 0 0 0 0 0 0 0 0 0 0 0 0 0 0 0 0 0 0 0 0 0 0 0 0 0 0 0 0 0 0 0 0 0 0 0 0 0 0 0 0 0 0 0 0 0 0 0 0 0 0 0 0 0 0 0 0 0 0 0 0 0 0 0 0 0 0 0 0 0 0 0 0 0 0 0 0 0 0 0 0 0 0 0 0 0 0 0 0 0 0 0 0 0 0 0 0 0 0 0 0 0 0 0 0 0 0 0 0 0 0 0 0 0 0 0 0 0 0 0 0 0 0 0 0 0 0 0 0 0 0 0 0 0 0 0 0 0 0 0 0 0 0 0 0 0 0 0 0 0 0 0 0 0 0 0 0 0 0 0 0 0 0 0 0 0 0 0 0 0 0 0 0 0 0 0 0 0 0 0 0 0 0 0 0 0 0 0 0 0 0 0 0 0 0 0 0 0 0 0 0 0 0 0 0 0 0 0 0 0 0 0 0 0 0 0 0 0 0 0 0 0 0 0 0 0 0 0 0 0 0 0 0 0 0 0 0 0 0 0 0 0 0 0 0 0 0 0 0 0 0 0 0 0 0 0 0 0 0 0 0 0 0 0 0 0 0 0 0 0 0 0 0 0 0 0 0 0 0 0 0 0 0 0 0 0 0 0 0 0 0 0 0 0 0 0 0 0 0 0 0 0 0 0 0 0 0 0 0 0 0 0 0 0 0 0 0 0 0 0 0 0 0 0 0 0 0 0 0 0 0 0 0 0 0 0 0 0 0 0 0 0 0 0 0 0 0 0 0 0 0 0 0 0 0 0 0 0 0 0 0 0 0 0 0 0 0 0 0 0 0 0 0 0 0 0 0 0 0 0 0 0 0 0 0 0 0 0 0 0 0 0 0 0 0 0 0 0 0 0 0 0 0 0 0 0 0 0 0 0 0 0 0 0 0 0 0 0 0 0 0 0 0 0 0 0 0 0 0 0 0 0 0 0 0 0 0 0 0 0 0 0 0 0 0 0 0 0 0 0 0 0 0 0 0 0 0 0 0 0 0 0 0 0 0 0 0 0 0 0 0 0 0 0 0 0 0 0 0 0 0 0 0 0 0 0 0 0 0 0 0 0 0 0 0 0 0 0 0 0 0 0 0 0 0 0 0 0 0 0 0 0 0 0 0 0 0 0 0 0 0 0 0 0 0 0 0 0 0 0 0 0 0 0 0 0 0 0 0 0 0 0 0 0 0 0 0 0 0 0 0 0 0 0 0 0 0 0 0 0 0 0 0 0 0 0 0 0 0 0 0 0 0 0 0 0 0 0 0 0 0 0 0 0 0 0 0 0 0 0 0 0 0 0 0 0 0 0 0 0 0 0 0 0 0 0 0 0 0 0 0 0 0 0 0 0 0 0 0 0 0 0 0 0 0 0 0 0 0 0 0 0 0 0 0 0 0 0 0 0 0 0 0 0 0 0 0 0 0 0 0 0 0 0 0 0 0 0 0 0 0 0 0 0 0 0 0 0 0 0 0 0 0 0 0 0 0 0 0 0 0 0 0 0 0 0 0 0 0 0 0 0 0 0 0 0 0 0 0 0 0 0 0 0 0 0 0 0 0 0 0 0 0 0 0 0 0 0 0 0 0 0 0 0 0 0 0 0 0 0 0 0 0 0 0 0 0 0 0 0 0 0 0 0 0 0 0 0 0 0 0 0 0 0 0 0 0 0 0 0 0 0 0 0 0 0 0 0 0 0 0 0 0 0 0 0 0 0 0 0 0 0 0 0 0 0 0 0 0 0 0 0 0 0 0 0 0 0 0 0 0 0 0 0 0 0 0 0 0 0 0 0 0 0 0 0 0 0 0 0 0 0 0 0 0 0 0 0 0 0 0 0 0 0 0 0 0 0 0 0 0 0 0 0 0 0 0 0 0 0 0 0 0 0 0 0 0 0 0 0 0 0 0 0 0 0 0 0 0 0 0 0 0 0 0 0 0 0 0 0 0 0 0 0 0 0 0 0 0 0 0 0 0 0 0 0 0 0 0 0 0 0 0 0 0 0 0 0 0 0 0 0 0 0 0 0 0 0 0 0 0 0 0 0 0 0 0 0 0 0 0 0 0 0 0 0 0 0 0 0 0 0 0 0 0 0 0 0 0 0 0 0 0 0 0 0 0 0 0 0 0 0 0 0 0 0 0 0 0 0 0 0 0 0 0 0 0 0 0 0 0 0 0 0 0 0 0 0 0 0 0 0 0 0 0 0 0 0 0 0 0 0 0 0 0 0 0 0 0 0 0 0 0 0 0 0 0 0 0 0 0 0 0 0 0 0 0 0 0 0 0 0 0 0 0 0 0 0 0 0 0 0 0 0 0 0 0 0 0 0 0 0 0 0 0 0 0 0 0 0 0 0 0 0 0 0 0 0 0 0 0 0 0 0 0 0 0 0 0 0 0 0 0 0 0 0 0 0 0 0 0 0 0 0 0 0 0 0 0 0 0 0 0 0 0 0 0 0 0 0 0 0 0 0 0 0 0 0 0 0 0 0 0 0 0 0 0 0 0 0 0 0 0 0 0 0 0 0 0 0 0 0 0 0 0 0 0 0 0 0 0 0 0 0 0 0 0 0 0 0 0 0 0 0 0 0 0 0 0 0 0 0 0 0 0 0 0 0 0 0 0 0 0 0 0 0 0 0 0 0 0 0 0 0 0 0 0 0 0 0 0 0 0 0 0 0 0 0 0 0 0 0 0 0 0 0 0 0 0 0 0 0 0 0 0 0 0 0 0 0 0 0 0 0 0 0 0 0 0 0 0 0 0 0 0 0 0 0 0 0 0 0 0 0 0 0 0 0 0 0 0 0 0 0 0 0 0 0 0 0 0 0 0 0 0 0 0 0 0 0 0 0 0 0 0 0 0 0 0 0 0 0 0 0 0 0 0 0 0 0 0 0 0 0 0 0 0 0 0 0 0 0 0 0 0 0 0 0 0 0 0 0 0 0 0 0 0 0 0 0 0 0 0 0 0 0 0 0 0 0 0 0 0 0 0 0 0 0 0 0 0 0 0 0 0 0 0 0 0 0 0 0 0 0 0 0 0 0 0 0 0 0 0 0 0 0 0 0 0 0 0 0 0 0 0 0 0 0 0 0 0 0 0 0 0 0 0 0 0 0 0 0 0 0 0 0 0 0 0 0 0 0 0 0 0 0 0 0 0 0 0 0 0 0 0 0 0 0 0 0 0 0 0 0 0 0 0 0 0 0 0 0 0 0 0 0 0 0 0 0 0 0 0 0 0 0 0 0 0 0 0 0 0 0 0 0 0 0 0 0 0 0 0 0 0 0 0 0 0 0 0 0 0 0 0 0 0 0 0 0 0 0 0 0 0 0 0 0 0 0 0 0 0 0 0 0 0 0 0 0 0 0 0 0 0 0 0 0 0 0 0 0 0 0 0 0 0 0 0 0 0 0 0 0 0 0 0 0 0 0 0 0 0 0 0 0 0 0 0 0 0 0 0 0 0 0 0 0 0 0 0 0 0 0 0 0 0 0 0 0 0 0 0 0 0 0 0 0 0 0 0 0 0 0 0 0 0 0 0 0 0 0 0 0 0 0 0 0 0 0 0 0 0 0 0 0 0 0 0 0 0 0 0 0 0 0 0 0 0 0 0 0 0 0 0 0 0 0 0 0 0 0 0 0 0 0 0 0 0 0 0 0 0 0 0 0 0 0 0 0 0 0 0 0 0 0 0 0 0 0 0 0 0 0 0 0 0 0 0 0 0 0 0 0 0 0 0 0 0 0 0 0 0 0 0 0 0 0 0 0 0 0 0 0 0 0 0 0 0 0 0 0 0 0 0 0 0 0 0 0 0 0 0 0 0 0 0 0 0 0 0 0 0 0 0 0 0 0 0 0 0 0 0 0 0 0 0 0 0 0 0 0 0 0 0 0 0 0 0 0 0 0 0 0 0 0 0 0 0 0 0 0 0 0 0 0 0 0 0 0 0 0 0 0 0 0 0 0 0 0 0 0 0 0 0 0 0 0 0 0 0 0 0 0 0 0 0 0 0 0 0 0 0 0 0 0 0 0 0 0 0 0 0 0 0 0 0 0 0 0 0 0 0 0 0 0 0 0 0 0 0 0 0 0 0 0 0 0 0 0 0 0 0 0 0 0 0 0 0 0 0 0 0 0 0 0 0 0 0 0 0 0 0 0 0 0 0 0 0 0 0 0 0 0 0 0 0 0 0 0 0 0 0 0 0 0 0 0 0 0 0 0 0 0 0 0 0 0 0 0 0 0 0 0 0 0 0 0 0 0 0 0 0 0 0 0 0 0 0 0 0 0 0 0 0 0 0 0 0 0 0 0 0 0 0 0 0 0 0 0 0 0 0 0 0 0 0 0 0 0 0 0 0 0 0 0 0 0 0 0 0 0 0 0 0 0 0 0 0 0 0 0 0 0 0 0 0 0 0 0 0 0 0 0 0 0 0 0 0 0 0 0 0 0 0 0 0 0 0 0 0 0 0 0 0 0 0 0 0 0 0 0 0 0 0 0 0 0 0 0 0 0 0 0 0 0 0 0 0 0 0 0 0 0 0 0 0 0 0 0 0 0 0 0 0 0 0 0 0 0 0 0 0 0 0 0 0 0 0 0 0 0 0 0 0 0 0 0 0 0 0 0 0 0 0 0 0 0 0 0 0 0 0 0 0 0 0 0 0 0 0 0 0 0 0 0 0 0 0 0 0 0 0 0 0 0 0 0 0 0 0 0 0 0 0 0 0 0 0 0 0 0 0 0 0 0 0 0 0 0 0 0 0 0 0 0 0 0 0 0 0 0 0 0 0 0 0 0 0 0 0 0 0 0 0 0 0 0 0 0 0 0 0 0 0 0 0 0 0 0 0 0 0 0 0 0 0 0 0 0 0 0 0 0 0 0 0 0 0 0 0 0 0 0 0 0 0 0 0 0 0 0 0 0 0 0 0 0 0 0 0 0 0 0 0 0 0 0 0 0 0 0 0 0 0 0 0 0 0 0 0 0 0 0 0 0 0 0 0 0 0 0 0 0 0 0 0 0 0 0 0 0 0 0 0 0 0 0 0 0 0 0 0 0 0 0 0 0 0 0 0 0 0 0 0 0 0 0 0 0 0 0 0 0 0 0 0 0 0 0 0 0 0 0 0 0 0 0 0 0 0 0 0 0 0 0 0 0 0 0 0 0 0 0 0 0 0 0 0 0 0 0 0 0 0 0 0 0 0 0 0 0 0 0 0 0 0 0 0 0 0 0 0 0 0 0 0 0 0 0 0 0 0 0 0 0 0 0 0 0 0 0 0 0 0 0 0 0 0 0 0 0 0 0 0 0 0 0 0 0 0 0 0 0 0 0 0 0 0 0 0 0 0 0 0 0 0 0 0 0 0 0 0 0 0 0 0 0 0 0 0 0 0 0 0 0 0 0 0 0 0 0 0 0 0 0 0 0 0 0 0 0 0 0 0 0 0 0 0 0 0 0 0 0 0 0 0 0 0 0 0 0 0 0 0 0 0 0 0 0 0 0 0 0 0 0 0 0 0 0 0 0 0 0 0 0 0 0 0 0 0 0 0 0 0 0 0 0 0 0 0 0 0 0 0 0 0 0 0 0 0 0 0 0 0 0 0 0 0 0 0 0 0 0 0 0 0 0 0 0 0 0 0 0 0 0 0 0 0 0 0 0 0 0 0 0 0 0 0 0 0 0 0 0 0 0 0 0 0 0 0 0 0 0 0 0 0 0 0 0 0 0 0 0 0 0 0 0 0 0 0 0 0 0 0 0 0 0 0 0 0 0 0 0 0 0 0 0 0 0 0 0 0 0 0 0 0 0 0 0 0 0 0 0 0 0 0 0 0 0 0 0 0 0 0 0 0 0 0 0 0 0 0 0 0 0 0 0 0 0 0 0 0 0 0 0 0 0 0 0 0 0 0 0 0 0 0 0 0 0 0 0 0 0 0 0 0 0 0 0 0 0 0 0 0 0 0 0 0 0 0 0 0 0 0 0 0 0 0 0 0 0 0 0 0 0 0 0 0 0 0 0 0 0 0 0 0 0 0 0 0 0 0 0 0 0 0 0 0 0 0 0 0 0 0 0 0 0 0 0 0 0 0 0 0 0 0 0 0 0 0 0 0 0 0 0 0 0 0 0 0 0 0 0 0 0 0 0 0 0 0 0 0 0 0 0 0 0 0 0 0 0 0 0 0 0 0 0 0 0 0 0 0 0 0 0 0 0 0 0 0 0 0 0 0 0 0 0 0 0 0 0 0 0 0 0 0 0 0 0 0 0 0 0 0 0 0 0 0 0 0 0 0 0 0 0 0 0 0 0 0 0 0 0 0 0 0 0 0 0 0 0 0 0 0 0 0 0 0 0 0 0 0 0 0 0 0 0 0 0 0 0 0 0 0 0 0 0 0 0 0 0 0 0 0 0 0 0 0 0 0 0 0 0 0 0 0 0 0 0 0 0 0 0 0 0 0 0 0 0 0 0 0 0 0 0 0 0 0 0 0 0 0 0 0 0 0 0 0 0 0 0 0 0 0 0 0 0 0 0 0 0 0 0 0 0 0 0 0 0 0 0 0 0 0 0 0 0 0 0 0 0 0 0 0 0 0 0 0 0 0 0 0 0 0 0 0 0 0 0 0 0 0 0 0 0 0 0 0 0 0 0 0 0 0 0 0 0 0 0 0 0 0 0 0 0 0 0 0 0 0 0 0 0 0 0 0 0 0 0 0 0 0 0 0 0 0 0 0 0 0 0 0 0 0 0 0 0 0 0 0 0 0 0 0 0 0 0 0 0 0 0 0 0 0 0 0 0 0 0 0 0 0 0 0 0 0 0 0 0 0 0 0 0 0 0 0 0 0 0 0 0 0 0 0 0 0 0 0 0 0 0 0 0 0 0 0 0 0 0 0 0 0 0 0 0 0 0 0 0 0 0 0 0 0 0 0 0 0 0 0 0 0 0 0 0 0 0 0 0 0 0 0 0 0 0 0 0 0 0 0 0 0 0 0 0 0 0 0 0 0 0 0 0 0 0 0 0 0 0 0 0 0 0 0 0 0 0 0 0 0 0 0 0 0 0 0 0 0 0 0 0 0 0 0 0 0 0 0 0 0 0 0 0 0 0 0 0 0 0 0 0 0 0 0 0 0 0 0 0 0 0 0 0 0 0 0 0 0 0 0 0 0 0 0 0 0 0 0 0 0 0 0 0 0 0 0 0 0 0 0 0 0 0 0 0 0 0 0 0 0 0 0 0 0 0 0 0 0 0 0 0 0 0 0 0 0 0 0 0 0 0 0 0 0 0 0 0 0 0 0 0 0 0 0 0 0 0 0 0 0 0 0 0 0 0 0 0 0 0 0 0 0 0 0 0 0 0 0 0 0 0 0 0 0 0 0 0 0 0 0 0 0 0 0 0 0 0 0 0 0 0 0 0 0 0 0 0 0 0 0 0 0 0 0 0 0 0 0 0 0 0 0 0 0 0 0 0 0 0 0 0 0 0 0 0 0 0 0 0 0 0 0 0 0 0 0 0 0 0 0 0 0 0 0 0 0 0 0 0 0 0 0 0 0 0 0 0 0 0 0 0 0 0 0 0 0 0 0 0 0 0 0 0 0 0 0 0 0 0 0 0 0 0 0 0 0 0 0 0 0 0 0 0 0 0 0 0 0 0 0 0 0 0 0 0 0 0 0 0 0 0 0 0 0 0 0 0 0 0 0 0 0 0 0 0 0 0 0 0 0 0 0 0 0 0 0 0 0 0 0 0 0 0 0 0 0 0 0 0 0 0 0 0 0 0 0 0 0 0 0 0 0 0 0 0 0 0 0 0 0 0 0 0 0 0 0 0 0 0 0 0 0 0 0 0 0 0 0 0 0 0 0 0 0 0 0 0 0 0 0 0 0 0 0 0 0 0 0 0 0 0 0 0 0 0 0 0 0 0 0 0 0 0 0 0 0 0 0 0 0 0 0 0 0 0 0 0 0 0 0 0 0 0 0 0 0 0 0 0 0 0 0 0 0 0 0 0 0 0 0 0 0 0 0 0 0 0 0 0 0 0 0 0 0 0 0 0 0 0 0 0 0 0 0 0 0 0 0 0 0 0 0 0 0 0 0 0 0 0 0 0 0 0 0 0 0 0 0 0 0 0 0 0 0 0 0 0 0 0 0 0 0 0 0 0 0 0 0 0 0 0 0 0 0 0 0 0 0 0 0 0 0 0 0 0 0 0 0 0 0 0 0 0 0 0 0 0 0 0 0 0 0 0 0 0 0 0 0 0 0 0 0 0 0 0 0 0 0 0 0 0 0 0 0 0 0 0 0 0 0 0 0 0 0 0 0 0 0 0 0 0 0 0 0 0 0 0 0 0 0 0 0 0 0 0 0 0 0 0 0 0 0 0 0 0 0 0 0 0 0 0 0 0 0 0 0 0 0 0 0 0 0 0 0 0 0 0 0 0 0 0 0 0 0 0 0 0 0 0 0 0 0 0 0 0 0 0 0 0 0 0 0 0 0 0 0 0 0 0 0 0 0 0 0 0 0 0 0 0 0 0 0 0 0 0 0 0 0 0 0 0 0 0 0 0 0 0 0 0 0 0 0 0 0 0 0 0 0 0 0 0 0 0 0 0 0 0 0 0 0 0 0 0 0 0 0 0 0 0 0 0 0 0 0 0 0 0 0 0 0 0 0 0 0 0 0 0 0 0 0 0 0 0 0 0 0 0 0 0 0 0 0 0 0 0 0 0 0 0 0 0 0 0 0 0 0 0 0 0 0 0 0 0 0 0 0 0 0 0 0 0 0 0 0 0 0 0 0 0 0 0 0 0 0 0 0 0 0 0 0 0 0 0 0 0 0 0 0 0 0 0 0 0 0 0 0 0 0 0 0 0 0 0 0 0 0 0 0 0 0 0 0 0 0 0 0 0 0 0 0 0 0 0 0 0 0 0 0 0 0 0 0 0 0 0 0 0 0 0 0 0 0 0 0 0 0 0 0 0 0 0 0 0 0 0 0 0 0 0 0 0 0 0 0 0 0 0 0 0 0 0 0 0 0 0 0 0 0 0 0 0 0 0 0 0 0 0 0 0 0 0 0 0 0 0 0 0 0 0 0 0 0 0 0 0 0 0 0 0 0 0 0 0 0 0 0 0 0 0 0 0 0 0 0 0 0 0 0 0 0 0 0 0 0 0 0 0 0 0 0 0 0 0 0 0 0 0 0 0 0 0 0 0 0 0 0 0 0 0 0 0 0 0 0 0 0 0 0 0 0 0 0 0 0 0 0 0 0 0 0 0 0 0 0 0 0 0 0 0 0 0 0 0 0 0 0 0 0 0 0 0 0 0 0 0 0 0 0 0 0 0 0 0 0 0 0 0 0 0 0 0 0 0 0 0 0 0 0 0 0 0 0 0 0 0 0 0 0 0 0 0 0 0 0 0 0 0 0 0 0 0 0 0 0 0 0 0 0 0 0 0 0 0 0 0 0 0 0 0 0 0 0 0 0 0 0 0 0 0 0 0 0 0 0 0 0 0 0 0 0 0 0 0 0 0 0 0 0 0 0 0 0 0 0 0 0 0 0 0 0 0 0 0 0 0 0 0 0 0 0 0 0 0 0 0 0 0 0 0 0 0 0 0 0 0 0 0 0 0 0 0 0 0 0 0 0 0 0 0 0 0 0 0 0 0 0 0 0 0 0 0 0 0 0 0 0 0 0 0 0 0 0 0 0 0 0 0 0 0 0 0 0 0 0 0 0 0 0 0 0 0 0 0 0 0 0 0 0 0 0 0 0 0 0 0 0 0 0 0 0 0 0 0 0 0 0 0 0 0 0 0 0 0 0 0 0 0 0 0 0 0 0 0 0 0 0 0 0 0 0 0 0 0 0 0 0 0 0 0 0 0 0 0 0 0 0 0 0 0 0 0 0 0 0 0 0 0 0 0 0 0 0 0 0 0 0 0 0 0 0 0 0 0 0 0 0 0 0 0 0 0 0 0 0 0 0 0 0 0 0 0 0 0 0 0 0 0 0 0 0 0 0 0 0 0 0 0 0 0 0 0 0 0 0 0 0 0 0 0 0 0 0 0 0 0 0 0 0 0 0 0 0 0 0 0 0 0 0 0 0 0 0 0 0 0 0 0 0 0 0 0 0 0 0 0 0 0 0 0 0 0 0 0 0 0 0 0 0 0 0 0 0 0 0 0 0 0 0 0 0 0 0 0 0 0 0 0 0 0 0 0 0 0 0 0 0 0 0 0 0 0 0 0 0 0 0 0 0 0 0 0 0 0 0 0 0 0 0 0 0 0 0 0 0 0 0 0 0 0 0 0 0 0 0 0 0 0 0 0 0 0 0 0 0 0 0 0 0 0 0 0 0 0 0 0 0 0 0 0 0 0 0 0 0 0 0 0 0 0 0 0 0 0 0 0 0 0 0 0 0 0 0 0 0 0 0 0 0 0 0 0 0 0 0 0 0 0 0 0 0 0 0 0 0 0 0 0 0 0 0 0 0 0 0 0 0 0 0 0 0 0 0 0 0 0 0 0 0 0 0 0 0 0 0 0 0 0 0 0 0 0 0 0 0 0 0 0 0 0 0 0 0 0 0 0 0 0 0 0 0 0 0 0 0 0 0 0 0 0 0 0 0 0 0 0 0 0 0 0 0 0 0 0 0 0 0 0 0 0 0 0 0 0 0 0 0 0 0 0 0 0 0 0 0 0 0 0 0 0 0 0 0 0 0 0 0 0 0 0 0 0 0 0 0 0 0 0 0 0 0 0 0 0 0 0 0 0 0 0 0 0 0 0 0 0 0 0 0 0 0 0 0 0 0 0 0 0 0 0 0 0 0 0 0 0 0 0 0 0 0 0 0 0 0 0 0 0 0 0 0 0 0 0 0 0 0 0 0 0 0 0 0 0 0 0 0 0 0 0 0 0 0 0 0 0 0 0 0 0 0 0 0 0 0 0 0 0 0 0 0 0 0 0 0 0 0 0 0 0 0 0 0 0 0 0 0 0 0 0 0 0 0 0 0 0 0 0 0 0 0 0 0 0 0 0 0 0 0 0 0 0 0 0 0 0 0 0 0 0 0 0 0 0 0 0 0 0 0 0 0 0 0 0 0 0 0 0 0 0 0 0 0 0 0 0 0 0 0 0 0 0 0 0 0 0 0 0 0 0 0 0 0 0 0 0 0 0 0 0 0 0 0 0 0 0 0 0 0 0 0 0 0 0 0 0 0 0 0 0 0 0 0 0 0 0 0 0 0 0 0 0 0 0 0 0 0 0 0 0 0 0 0 0 0 0 0 0 0 0 0 0 0 0 0 0 0 0 0 0 0 0 0 0 0 0 0 0 0 0 0 0 0 0 0 0 0 0 0 0 0 0 0 0 0 0 0 0 0 0 0 0 0 0 0 0 0 0 0 0 0 0 0 0 0 0 0 0 0 0 0 0 0 0 0 0 0 0 0 0 0 0 0 0 0 0 0 0 0 0 0 0 0 0 0 0 0 0 0 0 0 0 0 0 0 0 0 0 0 0 0 0 0 0 0 0 0 0 0 0 0 0 0 0 0 0 0 0 0 0 0 0 0 0 0 0 0 0 0 0 0 0 0 0 0 0 0 0 0 0 0 0 0 0 0 0 0 0 0 0 0 0 0 0 0 0 0 0 0 0 0 0 0 0 0 0 0 0 0 0 0 0 0 0 0 0 0 0 0 0 0 0 0 0 0 0 0 0 0 0 0 0 0 0 0 0 0 0 0 0 0 0 0 0 0 0 0 0 0 0 0 0 0 0 0 0 0 0 0 0 0 0 0 0 0 0 0 0 0 0 0 0 0 0 0 0 0 0 0 0 0 0 0 0 0 0 0 0 0 0 0 0 0 0 0 0 0 0 0 0 0 0 0 0 0 0 0 0 0 0 0 0 0 0 0 0 0 0 0 0 0 0 0 0 0 0 0 0 0 0 0 0 0 0 0 0 0 0 0 0 0 0 0 0 0 0 0 0 0 0 0 0 0 0 0 0 0 0 0 0 0 0 0 0 0 0 0 0 0 0 0 0 0 0 0 0 0 0 0 0 0 0 0 0 0 0 0 0 0 0 0 0 0 0 0 0 0 0 0 0 0 0 0 0 0 0 0 0 0 0 0 0 0 0 0 0 0 0 0 0 0 0 0 0 0 0 0 0 0 0 0 0 0 0 0 0 0 0 0 0 0 0 0 0 0 0 0 0 0 0 0 0 0 0 0 0 0 0 0 0 0 0 0 0 0 0 0 0 0 0 0 0 0 0 0 0 0 0 0 0 0 0 0 0 0 0 0 0 0 0 0 0 0 0 0 0 0 0 0 0 0 0 0 0 0 0 0 0 0 0 0 0 0 0 0 0 0 0 0 0 0 0 0 0 0 0 0 0 0 0 0 0 0 0 0 0 0 0 0 0 0 0 0 0 0 0 0 0 0 0 0 0 0 0 0 0 0 0 0 0 0 0 0 0 0 0 0 0 0 0 0 0 0 0 0 0 0 0 0 0 0 0 0 0 0 0 0 0 0 0 0 0 0 0 0 0 0 0 0 0 0 0 0 0 0 0 0 0 0 0 0 0 0 0 0 0 0 0 0 0 0 0 0 0 0 0 0 0 0 0 0 0 0 0 0 0 0 0 0 0 0 0 0 0 0 0 0 0 0 0 0 0 0 0 0 0 0 0 0 0 0 0 0 0 0 0 0 0 0 0 0 0 0 0 0 0 0 0 0 0 0 0 0 0 0 0 0 0 0 0 0 0 0 0 0 0 0 0 0 0 0 0 0 0 0 0 0 0 0 0 0 0 0 0 0 0 0 0 0 0 0 0 0 0 0 0 0 0 0 0 0 0 0 0 0 0 0 0 0 0 0 0 0 0 0 0 0 0 0 0 0 0 0 0 0 0 0 0 0 0 0 0 0 0 0 0 0 0 0 0 0 0 0 0 0 0 0 0 0 0 0 0 0 0 0 0 0 0 0 0 0 0 0 0 0 0 0 0 0 0 0 0 0 0 0 0 0 0 0 0 0 0 0 0 0 0 0 0 0 0 0 0 0 0 0 0 0 0 0 0 0 0 0 0 0 0 0 0 0 0 0 0 0 0 0 0 0 0 0 0 0 0 0 0 0 0 0 0 0 0 0 0 0 0 0 0 0 0 0 0 0 0 0 0 0 0 0 0 0 0 0 0 0 0 0 0 0 0 0 0 0 0 0 0 0 0 0 0 0 0 0 0 0 0 0 0 0 0 0 0 0 0 0 0 0 0 0 0 0 0 0 0 0 0 0 0 0 0 0 0 0 0 0 0 0 0 0 0 0 0 0 0 0 0 0 0 0 0 0 0 0 0 0 0 0 0 0 0 0 0 0 0 0 0 0 0 0 0 0 0 0 0 0 0 0 0 0 0 0 0 0 0 0 0 0 0 0 0 0 0 0 0 0 0 0 0 0 0 0 0 0 0 0 0 0 0 0 0 0 0 0 0 0 0 0 0 0 0 0 0 0 0 0 0 0 0 0 0 0 0 0 0 0 0 0 0 0 0 0 0 0 0 0 0 0 0 0 0 0 0 0 0 0 0 0 0 0 0 0 0 0 0 0 0 0 0 0 0 0 0 0 0 0 0 0 0 0 0 0 0 0 0 0 0 0 0 0 0 0 0 0 0 0 0 0 0 0 0 0 0 0 0 0 0 0 0
label 0 1 2 3 4 5 6 7 8 9 10 11 12 13 14 15 16 17 18 19 20 21 22 23 24 25 26 27 28 29 30 31 32 33 34 35 36 37 38 39 40 41 42 43 44 45 46 47 48 49 50 51 52 53 54 55 56 57 58 59 60 61 62 63 64 65 66 67 68 69 70 71 72 73 74 75 76 77 78 79 80 81 82 83 84 85 86 87 88 89 90 91 92 93 94 95 96 97 98 99 100 101 102 103 104 105 106 107 108 109 110 111 112 113 114 115 116 117 118 119 120 121 122 123 124 125 126 127 128 129 130 131 132 133 134 135 136 137 138 139 140 141 142
nr_sv 1 1 1 1 1 1 1 1 1 1 1 1 1 1 1 1 1 1 1 1 1 1 1 1 1 1 1 1 1 1 1 1 1 1 1 1 1 1 1 1 1 1 1 1 1 1 1 1 1 1 1 1 1 1 1 1 1 1 1 1 1 1 1 1 1 1 1 1 1 1 1 1 1 1 1 1 1 1 1 1 1 1 1 1 1 1 1 1 1 1 1 1 1 1 1 1 1 1 1 1 1 1 1 1 1 1 1 1 1 1 1 1 1 1 1 1 1 1 1 1 1 1 1 1 1 1 1 1 1 1 1 1 1 1 1 1 1 1 1 1 1 1 1
SV
1 1 1 1 1 1 1 1 1 1 1 1 1 1 1 1 1 1 1 1 1 1 1 1 1 1 1 1 1 1 1 1 1 1 1 1 1 1 1 1 1 1 1 1 1 1 1 1 1 1 1 1 1 1 1 1 1 1 1 1 1 1 1 1 1 1 1 1 1 1 1 1 1 1 1 1 1 1 1 1 1 1 1 1 1 1 1 1 1 1 1 1 1 1 1 1 1 1 1 1 1 1 1 1 1 1 1 1 1 1 1 1 1 1 1 1 1 1 1 1 1 1 1 1 1 1 1 1 1 1 1 1 1 1 1 1 1 1 1 1 1 1 1:0.0772201 2:0 3:0 4:0 5:0 6:0 7:0 8:0 9:0 10:0 11:0.0772201 12:1.00386 13:0.849421 14:0.772201 15:1.00386 16:1.23552 17:0.540541 18:1.85328 19:3.16602 20:4.09266 21:5.48262 22:9.18918 23:10.193 24:9.34362 25:8.1081 26:8.72586 27:8.26254 28:7.10424 29:7.3359 30:5.94594 31:2.47104 32:1.08108 33:0.926641 34:0.772201 35:0.23166 36:0.0772201 37:0 38:0 39:0 40:0.0772201 41:0 42:0 43:0 44:0.0772201 45:0 46:0.23166 47:0 48:0.23166 49:0.23166 50:0.3861 51:0.15444 52:0.3861 53:0.23166 54:1.00386 55:1.23552 56:6.10038 57:4.40154 58:2.54826 59:3.55212 60:4.78764 61:3.32046 62:3.62934 63:2.00772 64:2.39382 65:2.00772 66:2.54826 67:2.39382 68:1.77606 69:1.5444 70:1.9305 71:3.01158 72:2.00772 73:3.78378 74:2.93436 75:4.86486 76:7.41312 77:4.01544 78:3.16602 79:4.86486 80:7.41312 81:3.01158 82:2.3166 83:0.23166 84:0 85:0.30888 86:0.0772201 87:0.30888 88:0.15444 89:0.617761 90:0.540541 91:3.16602 92:2.62548 93:3.24324 94:3.24324 95:3.32046 96:4.09266 97:4.78764 98:3.55212 99:3.39768 100:2.77992 101:3.93822 102:2.77992 103:3.32046 104:3.32046 105:2.85714 106:3.39768 107:4.01544 108:3.4749 109:3.32046 110:2.54826 111:0.617761 112:0.23166 113:0 114:0.30888 115:0.540541 116:0.772201 117:1.62162 118:1.77606 119:1.5444 120:2.00772 121:1.23552 122:1.23552 123:0.926641 124:0.694981 125:1.31274 126:1.00386 127:1.1583 128:0.617761 129:1.00386 130:2.47104 131:2.54826 132:2.7027 133:2.62548 134:2.00772 135:1.9305 136:0 137:0 138:0 139:0 140:0 141:0 142:0 143:0 144:0 145:0 146:0 147:0 148:0 149:0 150:0 151:0 152:0 153:0 154:0 155:0 156:0 157:0 158:0 159:0 160:0 161:0 162:0 163:0 164:0 165:0 166:0 167:0 168:0 169:0 170:0 171:0 172:0 173:0 174:0 175:0 176:0 177:0 178:0 179:0 180:0 181:0.0771605 182:0 183:0 184:0 185:0 186:0 187:0 188:0 189:0 190:0 191:0 192:0 193:0 194:0 195:0 196:0 197:0 198:0 199:0 200:0 201:0 202:0 203:0 204:0 205:0 206:0 207:0 208:0 209:0 210:0 211:0 212:0 213:0 214:0 215:0 216:0 217:0 218:0 219:0 220:0 221:0 222:0 223:0 224:0 225:0 226:0 227:0 228:0 229:0 230:0 231:0 232:0 233:0 234:0 235:0 236:0 237:0 238:0 239:0 240:0 241:0 242:0 243:0.0771605 244:0.0771605 245:0.462963 246:0.154321 247:0.0771605 248:0.540123 249:0.694444 250:0.231481 251:1.00309 252:0.848765 253:0.694444 254:0.385802 255:0.540123 256:0.540123 257:0.385802 258:0.462963 259:0.540123 260:0.771605 261:0.385802 262:0.462963 263:0.308642 264:1.08025 265:0.694444 266:0.617284 267:0.308642 268:0.385802 269:1.00309 270:0.848765 271:1.23457 272:2.5463 273:8.7963 274:7.87037 275:3.39506 276:1.85185 277:1.15741 278:1.92901 279:1.00309 280:0.771605 281:1.08025 282:0.848765 283:0.848765 284:0.385802 285:0.771605 286:0.385802 287:0.694444 288:0.617284 289:0.540123 290:0.848765 291:0.848765 292:0.848765 293:1.46605 294:1.62037 295:1.15741 296:1.54321 297:2.23765 298:2.31482 299:2.5463 300:4.86111 301:13.5031 302:6.48148 303:2.9321 304:1.08025 305:1.08025 306:0.925926 307:1.08025 308:1.23457 
-1 1 1 1 1 1 1 1 1 1 1 1 1 1 1 1 1 1 1 1 1 1 1 1 1 1 1 1 1 1 1 1 1 1 1 1 1 1 1 1 1 1 1 1 1 1 1 1 1 1 1 1 1 1 1 1 1 1 1 1 1 1 1 1 1 1 1 1 1 1 1 1 1 1 1 1 1 1 1 1 1 1 1 1 1 1 1 1 1 1 1 1 1 1 1 1 1 1 1 1 1 1 1 1 1 1 1 1 1 1 1 1 1 1 1 1 1 1 1 1 1 1 1 1 1 1 1 1 1 1 1 1 1 1 1 1 1 1 1 1 1 1 1:0.0747943 2:0 3:0 4:0 5:0 6:0 7:0 8:0 9:0 10:0.149589 11:0.373972 12:0.373972 13:0.673149 14:0.972326 15:1.12191 16:1.12191 17:1.42109 18:2.39342 19:2.24383 20:5.60957 21:6.88108 22:10.7704 23:10.0224 24:9.42409 25:9.19971 26:8.82573 27:5.08601 28:3.36574 29:3.66492 30:7.62902 31:4.71204 32:2.09424 33:0.972326 34:0.373972 35:0.299177 36:0.0747943 37:0.0747943 38:0 39:0 40:0.0747943 41:0 42:0 43:0 44:0 45:0 46:0.972326 47:0.448766 48:0.373972 49:0.373972 50:0.0747943 51:0 52:0.299177 53:0.149589 54:1.64547 55:5.16081 56:3.59013 57:2.24383 58:2.6178 59:3.21615 60:1.86986 61:4.41286 62:3.51533 63:3.59013 64:2.54301 65:2.39342 66:1.79506 67:1.72027 68:2.01945 69:2.31862 70:2.09424 71:3.66492 72:3.81451 73:3.9641 74:5.53478 75:5.38519 76:3.9641 77:3.8893 78:4.26328 79:3.29095 80:4.26328 81:3.9641 82:2.91698 83:0.299177 84:0.224383 85:0 86:0.0747943 87:0.373972 88:0.0747943 89:0.299177 90:0.373972 91:2.31862 92:2.16903 93:1.79506 94:3.73971 95:3.29095 96:3.36574 97:1.94465 98:2.54301 99:2.76739 100:2.01945 101:3.66492 102:2.24383 103:2.84218 104:3.51533 105:2.31862 106:3.59013 107:4.18848 108:3.73971 109:2.99177 110:2.24383 111:1.94465 112:0.747943 113:0.0747943 114:0.373972 115:1.49589 116:1.04712 117:2.31862 118:2.24383 119:2.24383 120:2.09424 121:1.2715 122:1.72027 123:1.94465 124:0.972326 125:0.822737 126:1.19671 127:1.42109 128:0.822737 129:1.79506 130:2.6178 131:2.76739 132:2.76739 133:2.69259 134:2.91698 135:2.46821 136:0 137:0 138:0 139:0 140:0 141:0 142:0 143:0 144:0 145:0 146:0 147:0 148:0 149:0 150:0 151:0 152:0 153:0 154:0 155:0 156:0 157:0 158:0 159:0 160:0 161:0 162:0 163:0 164:0 165:0 166:0 167:0 168:0 169:0 170:0 171:0 172:0 173:0 174:0 175:0 176:0 177:0 178:0 179:0 180:0 181:0.0747384 182:0 183:0 184:0 185:0 186:0 187:0 188:0 189:0 190:0 191:0 192:0 193:0 194:0 195:0 196:0 197:0 198:0 199:0 200:0 201:0 202:0 203:0 204:0 205:0 206:0 207:0 208:0 209:0 210:0 211:0 212:0 213:0 214:0 215:0 216:0 217:0 218:0 219:0 220:0 221:0 222:0 223:0 224:0 225:0 226:0 227:0 228:0 229:0 230:0 231:0 232:0 233:0 234:0 235:0 236:0 237:0 238:0 239:0 240:0 241:0 242:0.0747384 243:0 244:0.149477 245:0.373692 246:0.0747384 247:0.373692 248:0.672646 249:0.747384 250:0.597907 251:0.597907 252:0.44843 253:0.373692 254:0.44843 255:0.747384 256:0.44843 257:0.523169 258:0.896861 259:0.523169 260:0.672646 261:0.298954 262:0.822122 263:0.597907 264:0.672646 265:0.597907 266:0.44843 267:1.04634 268:1.04634 269:1.42003 270:1.27055 271:1.56951 272:2.54111 273:4.78326 274:7.62332 275:4.11061 276:2.16741 277:1.56951 278:0.971599 279:0.597907 280:0.747384 281:0.373692 282:0.971599 283:0.44843 284:0.597907 285:1.04634 286:0.822122 287:1.04634 288:0.747384 289:0.896861 290:0.747384 291:1.04634 292:0.44843 293:1.56951 294:1.56951 295:1.49477 296:1.34529 297:2.39163 298:2.24215 299:3.8864 300:6.95068 301:9.41705 302:5.00748 303:2.31689 304:1.79372 305:2.09268 306:1.9432 307:1.79372 308:1.27055 
-1 -1 1 1 1 1 1 1 1 1 1 1 1 1 1 1 1 1 1 1 1 1 1 1 1 1 1 1 1 1 1 1 1 1 1 1 1 1 1 1 1 1 1 1 1 1 1 1 1 1 1 1 1 1 1 1 1 1 1 1 1 1 1 1 1 1 1 1 1 1 1 1 1 1 1 1 1 1 1 1 1 1 1 1 1 1 1 1 1 1 1 1 1 1 1 1 1 1 1 1 1 1 1 1 1 1 1 1 1 1 1 1 1 1 1 1 1 1 1 1 1 1 1 1 1 1 1 1 1 1 1 1 1 1 1 1 1 1 1 1 1 1 1:0 2:0 3:0 4:0 5:0 6:0 7:0 8:0 9:0.0721501 10:0 11:0.21645 12:0.36075 13:0.793651 14:1.443 15:1.2987 16:0.793651 17:1.37085 18:2.09235 19:1.7316 20:5.19481 21:7.07071 22:11.8326 23:10.101 24:8.00867 25:10.101 26:7.93651 27:6.13276 28:3.96825 29:4.4733 30:5.19481 31:5.62771 32:1.80375 33:1.0101 34:0.721501 35:0.4329 36:0.1443 37:0.0721501 38:0 39:0 40:0.0721501 41:0 42:0 43:0 44:0 45:0 46:0.1443 47:0.36075 48:0.36075 49:0.1443 50:0.0721501 51:0.1443 52:0.4329 53:0.1443 54:1.94805 55:5.69986 56:2.81385 57:2.7417 58:3.7518 59:1.8759 60:2.52525 61:4.329 62:4.83405 63:3.82395 64:2.5974 65:2.23665 66:2.38095 67:2.5974 68:1.443 69:1.37085 70:2.09235 71:3.39105 72:2.66955 73:4.40115 74:7.50361 75:4.54545 76:3.10245 77:4.11255 78:3.53535 79:3.1746 80:5.05051 81:3.6075 82:2.66955 83:0.21645 84:0.1443 85:0.2886 86:0.0721501 87:0.0721501 88:0.1443 89:0.1443 90:0.36075 91:2.5974 92:2.95815 93:2.4531 94:3.24675 95:3.3189 96:3.24675 97:2.7417 98:2.38095 99:1.2987 100:2.38095 101:2.95815 102:2.886 103:2.1645 104:3.53535 105:2.95815 106:3.10245 107:3.7518 108:3.4632 109:3.96825 110:2.0202 111:1.65945 112:0.793651 113:0 114:0.577201 115:1.0101 116:1.65945 117:2.0202 118:2.23665 119:2.52525 120:1.1544 121:1.443 122:1.7316 123:1.37085 124:1.22655 125:1.443 126:1.22655 127:1.80375 128:1.08225 129:1.5873 130:2.7417 131:2.09235 132:2.81385 133:2.23665 134:3.0303 135:3.1746 136:0 137:0 138:0 139:0 140:0 141:0 142:0 143:0 144:0 145:0 146:0 147:0 148:0 149:0 150:0 151:0 152:0 153:0 154:0 155:0 156:0 157:0 158:0 159:0 160:0 161:0 162:0 163:0 164:0 165:0 166:0 167:0 168:0 169:0 170:0 171:0 172:0 173:0 174:0 175:0 176:0 177:0 178:0 179:0 180:0 181:0 182:0 183:0 184:0 185:0 186:0 187:0 188:0 189:0 190:0 191:0 192:0 193:0 194:0 195:0 196:0 197:0 198:0 199:0 200:0 201:0 202:0 203:0 204:0 205:0 206:0 207:0 208:0 209:0 210:0 211:0 212:0 213:0 214:0 215:0 216:0 217:0 218:0 219:0 220:0 221:0 222:0 223:0 224:0 225:0 226:0 227:0 228:0 229:0 230:0 231:0 232:0 233:0 234:0 235:0 236:0 237:0 238:0 239:0 240:0 241:0 242:0.144196 243:0.216294 244:0.144196 245:0.216294 246:0.216294 247:0.36049 248:0.504686 249:0.793079 250:0.432588 251:0.504686 252:0.648883 253:0.576784 254:0.937275 255:0.36049 256:0.432588 257:0.865177 258:0.648883 259:0.576784 260:0.937275 261:0.432588 262:0.576784 263:0.720981 264:1.15357 265:0.865177 266:0.720981 267:0.937275 268:1.73035 269:2.73973 270:4.97477 271:3.7491 272:4.32588 273:2.52343 274:1.87455 275:1.51406 276:1.00937 277:1.15357 278:1.36986 279:0.720981 280:0.793079 281:0.576784 282:0.720981 283:0.865177 284:1.15357 285:0.793079 286:0.648883 287:0.648883 288:0.504686 289:0.793079 290:1.15357 291:1.00937 292:1.22567 293:0.576784 294:1.08147 295:0.648883 296:1.29776 297:1.51406 298:2.30714 299:2.37924 300:4.68637 301:9.37275 302:10.9589 303:3.24441 304:2.23504 305:1.44196 306:1.87455 307:1.94665 308:0.937275 
-1 -1 -1 1 1 1 1 1 1 1 1 1 1 1 1 1 1 1 1 1 1 1 1 1 1 1 1 1 1 1 1 1 1 1 1 1 1 1 1 1 1 1 1 1 1 1 1 1 1 1 1 1 1 1 1 1 1 1 1 1 1 1 1 1 1 1 1 1 1 1 1 1 1 1 1 1 1 1 1 1 1 1 1 1 1 1 1 1 1 1 1 1 1 1 1 1 1 1 1 1 1 1 1 1 1 1 1 1 1 1 1 1 1 1 1 1 1 1 1 1 1 1 1 1 1 1 1 1 1 1 1 1 1 1 1 1 1 1 1 1 1 1 1:0 2:0 3:0 4:0 5:0 6:0.139665 7:0 8:0.0698324 9:0 10:0.0698324 11:0.558659 12:0.418994 13:0.27933 14:0.558659 15:1.18715 16:1.32682 17:1.81564 18:1.60615 19:2.02514 20:5.51676 21:7.05307 22:11.3827 23:9.77654 24:10.405 25:9.42738 26:8.37988 27:4.05028 28:3.98045 29:4.05028 30:5.86592 31:6.14525 32:1.46648 33:0.977653 34:0.837989 35:0.418994 36:0.0698324 37:0.0698324 38:0 39:0.0698324 40:0 41:0.0698324 42:0 43:0 44:0 45:0 46:0.418994 47:0.0698324 48:0.418994 49:0.139665 50:0.0698324 51:0.27933 52:0 53:0.0698324 54:1.95531 55:5.09776 56:3.35195 57:2.3743 58:2.93296 59:2.3743 60:3.49162 61:4.05028 62:4.9581 63:2.7933 64:2.93296 65:2.5838 66:2.23464 67:2.02514 68:2.23464 69:1.53631 70:2.5838 71:2.7933 72:2.3743 73:4.88827 74:7.61173 75:4.7486 76:3.91061 77:4.18994 78:3.28212 79:2.72346 80:3.49162 81:4.88827 82:2.23464 83:0.27933 84:0.0698324 85:0.209497 86:0.349162 87:0.139665 88:0.0698324 89:0.349162 90:0.488827 91:3.07262 92:2.1648 93:3.28212 94:2.65363 95:2.5838 96:2.65363 97:3.49162 98:2.72346 99:2.3743 100:1.81564 101:3.35195 102:2.5838 103:2.72346 104:2.44413 105:3.14246 106:3.14246 107:4.32961 108:3.91061 109:3.21229 110:2.3743 111:2.02514 112:1.04749 113:0.349162 114:0.349162 115:1.11732 116:0.907821 117:1.60615 118:2.30447 119:2.51397 120:1.67598 121:1.39665 122:1.74581 123:1.81564 124:1.11732 125:1.60615 126:1.88548 127:1.11732 128:1.18715 129:1.67598 130:2.30447 131:1.67598 132:2.44413 133:2.44413 134:2.86313 135:2.86313 136:0 137:0 138:0 139:0 140:0 141:0 142:0 143:0 144:0 145:0 146:0 147:0 148:0 149:0 150:0 151:0 152:0 153:0 154:0 155:0 156:0 157:0 158:0 159:0 160:0 161:0 162:0 163:0 164:0 165:0 166:0 167:0 168:0 169:0 170:0 171:0 172:0 173:0 174:0 175:0 176:0 177:0 178:0 179:0 180:0 181:0 182:0 183:0 184:0 185:0 186:0 187:0 188:0 189:0 190:0 191:0 192:0 193:0 194:0 195:0 196:0 197:0 198:0 199:0 200:0 201:0 202:0 203:0 204:0 205:0 206:0 207:0 208:0 209:0 210:0 211:0 212:0 213:0 214:0 215:0 216:0 217:0 218:0 219:0 220:0 221:0 222:0 223:0 224:0 225:0 226:0 227:0 228:0 229:0 230:0 231:0 232:0 233:0 234:0 235:0 236:0 237:0 238:0 239:0 240:0 241:0 242:0 243:0.0697837 244:0.348918 245:0.488486 246:0.0697837 247:0.418702 248:0.628053 249:0.279135 250:0.418702 251:0.279135 252:0.628053 253:0.767621 254:0.488486 255:0.418702 256:0.907188 257:0.697837 258:0.488486 259:0.558269 260:0.837404 261:1.11654 262:0.628053 263:1.67481 264:1.74459 265:1.39567 266:2.44243 267:5.09421 268:5.58269 269:4.88486 270:2.37265 271:1.39567 272:0.558269 273:0.976972 274:0.976972 275:0.837404 276:0.628053 277:0.907188 278:0.837404 279:0.558269 280:0.279135 281:0.348918 282:0.628053 283:0.279135 284:0.488486 285:0.628053 286:0.488486 287:0.767621 288:0.907188 289:0.628053 290:0.697837 291:0.697837 292:1.53524 293:0.976972 294:0.767621 295:0.976972 296:1.04676 297:1.67481 298:1.60502 299:1.95394 300:2.09351 301:4.32659 302:11.3049 303:9.351 304:4.67551 305:2.09351 306:2.23308 307:1.67481 308:1.46546 
-1 -1 -1 -1 1 1 1 1 1 1 1 1 1 1 1 1 1 1 1 1 1 1 1 1 1 1 1 1 1 1 1 1 1 1 1 1 1 1 1 1 1 1 1 1 1 1 1 1 1 1 1 1 1 1 1 1 1 1 1 1 1 1 1 1 1 1 1 1 1 1 1 1 1 1 1 1 1 1 1 1 1 1 1 1 1 1 1 1 1 1 1 1 1 1 1 1 1 1 1 1 1 1 1 1 1 1 1 1 1 1 1 1 1 1 1 1 1 1 1 1 1 1 1 1 1 1 1 1 1 1 1 1 1 1 1 1 1 1 1 1 1 1 1:0.212615 2:0.0708717 3:0 4:0 5:0 6:0 7:0 8:0.141743 9:0.0708717 10:0.141743 11:0.42523 12:0.779589 13:0.496102 14:0.637845 15:1.13395 16:0.992204 17:0.921332 18:1.48831 19:3.18923 20:4.46492 21:6.59108 22:11.9773 23:8.43374 24:9.07158 25:9.21333 26:9.63855 27:4.96102 28:3.82708 29:4.74841 30:7.65415 31:4.25231 32:1.98441 33:1.06308 34:0.566974 35:0.283487 36:0.283487 37:0.0708717 38:0.212615 39:0 40:0.0708717 41:0 42:0 43:0 44:0 45:0 46:0.496102 47:0.283487 48:0.283487 49:0.141743 50:0.283487 51:0.0708717 52:0 53:0.0708717 54:1.98441 55:4.89015 56:3.68533 57:2.69313 58:3.40184 59:2.69313 60:3.04749 61:3.2601 62:4.74841 63:2.62225 64:2.97661 65:2.62225 66:2.33877 67:2.19702 68:1.98441 69:2.12615 70:2.62225 71:2.764 72:3.47272 73:4.11056 74:6.0241 75:5.38626 76:3.82708 77:4.32318 78:3.68533 79:2.62225 80:4.39405 81:3.82708 82:2.48051 83:0.283487 84:0.0708717 85:0.354359 86:0.0708717 87:0.141743 88:0.42523 89:0.0708717 90:0.212615 91:3.11836 92:2.764 93:2.40964 94:2.62225 95:3.11836 96:3.47272 97:2.83487 98:1.98441 99:2.40964 100:2.48051 101:3.11836 102:2.12615 103:2.69313 104:2.62225 105:3.11836 106:3.2601 107:3.54359 108:3.89795 109:4.03969 110:1.84266 111:1.77179 112:0.42523 113:0.141743 114:0.354359 115:0.921332 116:2.12615 117:1.98441 118:1.84266 119:2.40964 120:1.48831 121:1.98441 122:1.91354 123:1.70092 124:0.992204 125:1.34656 126:1.34656 127:1.55918 128:1.13395 129:1.84266 130:2.69313 131:2.55138 132:2.33877 133:1.98441 134:2.69313 135:3.04749 136:0 137:0 138:0 139:0 140:0 141:0 142:0 143:0 144:0 145:0 146:0 147:0 148:0 149:0 150:0 151:0 152:0 153:0 154:0 155:0 156:0 157:0 158:0 159:0 160:0 161:0 162:0 163:0 164:0 165:0 166:0 167:0 168:0 169:0 170:0 171:0 172:0 173:0 174:0 175:0 176:0 177:0 178:0 179:0 180:0 181:0.0708215 182:0 183:0 184:0 185:0 186:0 187:0 188:0 189:0 190:0 191:0 192:0 193:0 194:0 195:0 196:0 197:0 198:0 199:0 200:0 201:0 202:0 203:0 204:0 205:0 206:0 207:0 208:0 209:0 210:0 211:0 212:0 213:0 214:0 215:0 216:0 217:0 218:0 219:0 220:0 221:0 222:0 223:0 224:0 225:0 226:0 227:0 228:0 229:0 230:0 231:0 232:0 233:0 234:0 235:0 236:0 237:0 238:0 239:0 240:0 241:0 242:0.141643 243:0.141643 244:0.212465 245:0.566572 246:0.495751 247:0.212465 248:0.708215 249:0.566572 250:0.708215 251:0.708215 252:0.495751 253:0.566572 254:0.779037 255:0.212465 256:0.849858 257:1.13314 258:1.27479 259:1.20397 260:1.91218 261:1.77054 262:2.90368 263:3.11615 264:3.6119 265:3.75354 266:2.69122 267:2.05382 268:0.991501 269:1.41643 270:0.849858 271:0.708215 272:1.06232 273:0.637394 274:0.424929 275:0.424929 276:0.424929 277:0.566572 278:0.566572 279:0.708215 280:0.92068 281:0.991501 282:0.708215 283:0.779037 284:0.637394 285:0.495751 286:0.566572 287:0.495751 288:0.779037 289:0.424929 290:0.637394 291:0.849858 292:0.849858 293:0.495751 294:1.20397 295:0.92068 296:1.48725 297:1.41643 298:1.34561 299:2.26629 300:1.77054 301:3.18697 302:4.88669 303:9.84421 304:8.35695 305:5.2408 306:3.47025 307:1.77054 308:1.55807 
-1 -1 -1 -1 -1 1 1 1 1 1 1 1 1 1 1 1 1 1 1 1 1 1 1 1 1 1 1 1 1 1 1 1 1 1 1 1 1 1 1 1 1 1 1 1 1 1 1 1 1 1 1 1 1 1 1 1 1 1 1 1 1 1 1 1 1 1 1 1 1 1 1 1 1 1 1 1 1 1 1 1 1 1 1 1 1 1 1 1 1 1 1 1 1 1 1 1 1 1 1 1 1 1 1 1 1 1 1 1 1 1 1 1 1 1 1 1 1 1 1 1 1 1 1 1 1 1 1 1 1 1 1 1 1 1 1 1 1 1 1 1 1 1 1:0 2:0 3:0 4:0 5:0 6:0 7:0.0766871 8:0.0766871 9:0.0766871 10:0.383436 11:0.460123 12:0.306748 13:0.690184 14:1.07362 15:1.07362 16:2.14724 17:1.22699 18:1.7638 19:2.3773 20:4.83129 21:5.9816 22:11.7331 23:10.3528 24:9.81596 25:9.58589 26:7.36197 27:4.90798 28:3.91104 29:2.83742 30:3.98773 31:7.51535 32:2.53067 33:0.996932 34:0.690184 35:0.53681 36:0.613497 37:0 38:0.0766871 39:0 40:0 41:0 42:0.0766871 43:0 44:0 45:0 46:0.53681 47:0.230061 48:0 49:0.306748 50:0.153374 51:0.0766871 52:0.0766871 53:0.230061 54:2.60736 55:5.13804 56:2.3773 57:2.60736 58:2.3773 59:3.29755 60:2.07055 61:3.37423 62:3.68098 63:5.52148 64:2.9908 65:2.22393 66:2.76074 67:2.30061 68:2.14724 69:1.68712 70:2.68405 71:2.76074 72:3.91104 73:6.28835 74:6.51841 75:3.98773 76:4.83129 77:3.37423 78:3.14417 79:2.76074 80:3.52761 81:4.83129 82:1.61043 83:0.153374 84:0.230061 85:0.153374 86:0 87:0.230061 88:0.0766871 89:0 90:0.230061 91:2.60736 92:1.99386 93:2.53067 94:2.60736 95:2.9908 96:3.14417 97:2.9908 98:2.53067 99:2.76074 100:2.07055 101:3.06748 102:2.3773 103:3.14417 104:2.9908 105:2.91411 106:2.83742 107:3.60429 108:4.7546 109:2.83742 110:2.30061 111:1.68712 112:0.766871 113:0.383436 114:0.383436 115:0.690184 116:1.91718 117:2.76074 118:2.53067 119:1.84049 120:1.84049 121:1.91718 122:1.22699 123:1.84049 124:1.07362 125:0.920245 126:1.53374 127:1.68712 128:1.07362 129:1.91718 130:2.76074 131:2.30061 132:2.22393 133:3.06748 134:2.60736 135:2.07055 136:0 137:0 138:0 139:0 140:0 141:0 142:0 143:0 144:0 145:0 146:0 147:0 148:0 149:0 150:0 151:0 152:0 153:0 154:0 155:0 156:0 157:0 158:0 159:0 160:0 161:0 162:0 163:0 164:0 165:0 166:0 167:0 168:0 169:0 170:0 171:0 172:0 173:0 174:0 175:0 176:0 177:0 178:0 179:0 180:0 181:0 182:0 183:0 184:0 185:0 186:0 187:0 188:0 189:0 190:0 191:0 192:0 193:0 194:0 195:0 196:0 197:0 198:0 199:0 200:0 201:0 202:0 203:0 204:0 205:0 206:0 207:0 208:0 209:0 210:0 211:0 212:0 213:0 214:0 215:0 216:0 217:0 218:0 219:0 220:0 221:0 222:0 223:0 224:0 225:0 226:0 227:0 228:0 229:0 230:0 231:0 232:0 233:0 234:0 235:0 236:0 237:0 238:0 239:0 240:0 241:0 242:0 243:0.229885 244:0.306513 245:0.153257 246:0.45977 247:0.689655 248:0.689655 249:0.689655 250:0.383142 251:0.536398 252:1.0728 253:0.689655 254:1.14943 255:1.45594 256:3.06514 257:5.74713 258:4.44445 259:3.83142 260:2.29885 261:1.68582 262:0.996168 263:1.0728 264:0.689655 265:0.996168 266:0.689655 267:0.689655 268:0.766283 269:0.766283 270:0.536398 271:0.536398 272:0.229885 273:0.766283 274:0.613027 275:0.229885 276:0.229885 277:0.45977 278:0.842912 279:0.383142 280:0.536398 281:0.536398 282:0.536398 283:0.383142 284:0.842912 285:0.689655 286:0.766283 287:0.91954 288:0.689655 289:0.613027 290:0.766283 291:1.30268 292:0.766283 293:0.766283 294:1.22605 295:0.996168 296:0.91954 297:1.22605 298:1.76245 299:2.06897 300:1.37931 301:2.52874 302:2.83525 303:4.75096 304:10.728 305:8.1226 306:5.74713 307:2.45211 308:2.06897 
-1 -1 -1 -1 -1 -1 1 1 1 1 1 1 1 1 1 1 1 1 1 1 1 1 1 1 1 1 1 1 1 1 1 1 1 1 1 1 1 1 1 1 1 1 1 1 1 1 1 1 1 1 1 1 1 1 1 1 1 1 1 1 1 1 1 1 1 1 1 1 1 1 1 1 1 1 1 1 1 1 1 1 1 1 1 1 1 1 1 1 1 1 1 1 1 1 1 1 1 1 1 1 1 1 1 1 1 1 1 1 1 1 1 1 1 1 1 1 1 1 1 1 1 1 1 1 1 1 1 1 1 1 1 1 1 1 1 1 1 1 1 1 1 1 1:0.0833333 2:0 3:0 4:0 5:0 6:0.0833333 7:0.0833333 8:0.0833333 9:0.0833333 10:0.0833333 11:0.25 12:0.25 13:0.666667 14:0.75 15:1.25 16:1.33333 17:2.16667 18:2 19:2.08333 20:3.08333 21:7.08334 22:11.5833 23:11.8333 24:14.1666 25:10.9167 26:5.58333 27:3.83333 28:2.5 29:2.16667 30:2.33333 31:4.66667 32:7.33334 33:0.583333 34:0.5 35:0.166667 36:0.166667 37:0.0833333 38:0.0833333 39:0.166667 40:0 41:0 42:0 43:0 44:0 45:0 46:0.833333 47:0.833333 48:0.0833333 49:0.416667 50:0.0833333 51:0.25 52:0.0833333 53:0.916667 54:5.5 55:2.41667 56:1.83333 57:1.08333 58:1.33333 59:1.41667 60:1.33333 61:2.25 62:4.41667 63:4.75 64:5.58333 65:3.83333 66:3 67:2.91667 68:2.75 69:2.75 70:3.41667 71:3.91667 72:8.66667 73:6.83334 74:5.25 75:2.5 76:1.83333 77:1.41667 78:1.83333 79:1.5 80:2.08333 81:3.41667 82:5.25 83:0.916667 84:0.0833333 85:0.166667 86:0.0833333 87:0.0833333 88:0 89:0 90:0.166667 91:2 92:1.83333 93:2.25 94:4 95:2.16667 96:3.16667 97:1.66667 98:2.25 99:1.58333 100:2.41667 101:3 102:2.66667 103:3.16667 104:2.75 105:3 106:3.75 107:4.83333 108:4.41667 109:4 110:3 111:1.83333 112:0.916667 113:0.333333 114:0.333333 115:1.25 116:2.66667 117:3.08333 118:2 119:1.91667 120:1.58333 121:1.83333 122:1.25 123:1 124:1.83333 125:1.66667 126:2.25 127:1.08333 128:1.83333 129:2 130:2.91667 131:2.08333 132:1.66667 133:2 134:1.58333 135:1.25 136:0 137:0 138:0 139:0 140:0 141:0 142:0 143:0 144:0 145:0 146:0 147:0 148:0 149:0 150:0 151:0 152:0 153:0 154:0 155:0 156:0 157:0 158:0 159:0 160:0 161:0 162:0 163:0 164:0 165:0 166:0 167:0 168:0 169:0 170:0 171:0 172:0 173:0 174:0 175:0 176:0 177:0 178:0 179:0 180:0 181:0 182:0 183:0 184:0 185:0 186:0 187:0 188:0 189:0 190:0 191:0 192:0 193:0 194:0 195:0 196:0 197:0 198:0 199:0 200:0 201:0 202:0 203:0 204:0 205:0 206:0 207:0 208:0 209:0 210:0 211:0 212:0 213:0 214:0 215:0 216:0 217:0 218:0 219:0 220:0 221:0 222:0 223:0 224:0 225:0 226:0 227:0 228:0 229:0 230:0 231:0 232:0 233:0 234:0 235:0 236:0 237:0 238:0 239:0 240:0 241:0 242:0 243:0 244:0.0832639 245:0.41632 246:0.333056 247:0.499584 248:0.499584 249:0.832639 250:1.58202 251:1.66528 252:4.57952 253:8.40966 254:3.74688 255:0.999167 256:0.41632 257:1.1657 258:1.1657 259:0.832639 260:0.333056 261:0.582848 262:0.499584 263:0.666112 264:0.749375 265:0.666112 266:0.249792 267:0.333056 268:0.582848 269:0.582848 270:1.24896 271:0.832639 272:0.666112 273:0.249792 274:0.166528 275:0.249792 276:0.41632 277:0.582848 278:0.749375 279:0.333056 280:0.499584 281:0.499584 282:0.749375 283:0.249792 284:0.666112 285:0.499584 286:0.582848 287:0.749375 288:0.249792 289:0.41632 290:0.582848 291:0.666112 292:0.666112 293:0.832639 294:0.749375 295:0.915903 296:1.08243 297:1.74854 298:1.58202 299:1.66528 300:1.41549 301:2.58118 302:2.74771 303:3.58035 304:8.49292 305:10.0749 306:8.74271 307:4.91257 308:3.83014 
-1 -1 -1 -1 -1 -1 -1 1 1 1 1 1 1 1 1 1 1 1 1 1 1 1 1 1 1 1 1 1 1 1 1 1 1 1 1 1 1 1 1 1 1 1 1 1 1 1 1 1 1 1 1 1 1 1 1 1 1 1 1 1 1 1 1 1 1 1 1 1 1 1 1 1 1 1 1 1 1 1 1 1 1 1 1 1 1 1 1 1 1 1 1 1 1 1 1 1 1 1 1 1 1 1 1 1 1 1 1 1 1 1 1 1 1 1 1 1 1 1 1 1 1 1 1 1 1 1 1 1 1 1 1 1 1 1 1 1 1 1 1 1 1 1 1:0.149925 2:0.149925 3:0 4:0.0749625 5:0.149925 6:0.449775 7:0.149925 8:0.149925 9:0.0749625 10:0.0749625 11:0.0749625 12:0.374813 13:0.674663 14:0.524738 15:1.27436 16:1.12444 17:1.34933 18:1.1994 19:1.72414 20:3.52324 21:5.32234 22:11.9191 23:12.3688 24:14.4678 25:7.57122 26:5.17242 27:3.22339 28:3.52324 29:2.09895 30:2.32384 31:3.97302 32:6.29686 33:1.87406 34:1.12444 35:1.27436 36:2.47376 37:0.524738 38:0 39:0.224888 40:0.149925 41:0.29985 42:0.0749625 43:0.0749625 44:0.29985 45:0.149925 46:0.149925 47:0.149925 48:0.149925 49:0.149925 50:0 51:0.149925 52:0.224888 53:0.0749625 54:1.57421 55:4.94753 56:2.54873 57:2.62369 58:1.7991 59:2.02399 60:1.49925 61:2.3988 62:1.7991 63:2.47376 64:3.07346 65:5.54723 66:4.87257 67:4.1979 68:4.04798 69:5.84708 70:7.4213 71:7.57122 72:4.27287 73:3.44828 74:2.9985 75:1.7991 76:2.54873 77:2.24888 78:1.72414 79:2.17391 80:2.32384 81:5.84708 82:2.3988 83:0.149925 84:0.29985 85:0.0749625 86:0 87:0.0749625 88:0.224888 89:0 90:0.149925 91:2.17391 92:1.7991 93:1.94903 94:2.24888 95:2.69865 96:3.52324 97:3.89805 98:2.02399 99:2.9985 100:2.32384 101:2.9985 102:2.69865 103:2.84858 104:3.82309 105:3.37331 106:4.64768 107:4.7976 108:5.69716 109:4.04798 110:2.24888 111:1.27436 112:0.149925 113:0.0749625 114:0.5997 115:1.72414 116:2.47376 117:1.87406 118:2.02399 119:1.04948 120:0.89955 121:0.374813 122:0.449775 123:0.524738 124:0.5997 125:1.64918 126:1.34933 127:0.974513 128:1.34933 129:1.7991 130:2.62369 131:3.07346 132:2.54873 133:2.9985 134:2.62369 135:2.17391 136:0 137:0 138:0 139:0 140:0 141:0 142:0 143:0 144:0 145:0 146:0 147:0 148:0 149:0 150:0 151:0 152:0 153:0 154:0 155:0 156:0 157:0 158:0 159:0 160:0 161:0 162:0 163:0 164:0 165:0 166:0 167:0 168:0 169:0 170:0 171:0 172:0 173:0 174:0 175:0 176:0 177:0 178:0 179:0 180:0 181:0 182:0 183:0 184:0 185:0 186:0 187:0 188:0 189:0 190:0 191:0 192:0 193:0 194:0 195:0 196:0 197:0 198:0 199:0 200:0 201:0 202:0 203:0 204:0 205:0 206:0 207:0 208:0 209:0 210:0 211:0 212:0 213:0 214:0 215:0 216:0 217:0 218:0 219:0 220:0 221:0 222:0 223:0 224:0 225:0 226:0 227:0 228:0 229:0 230:0 231:0 232:0 233:0 234:0 235:0 236:0 237:0 238:0 239:0 240:0 241:0 242:0 243:0.973783 244:1.27341 245:2.17228 246:2.47191 247:5.31835 248:4.34457 249:3.82022 250:1.79775 251:0.898876 252:1.64794 253:0.82397 254:1.1985 255:0.749064 256:1.34831 257:1.1236 258:0.524345 259:0.973783 260:0.374532 261:0.374532 262:0.973783 263:0.449438 264:0.599251 265:0.674157 266:0.599251 267:0.299625 268:0.749064 269:0.674157 270:0.674157 271:0.449438 272:0.599251 273:0.524345 274:0.374532 275:0.749064 276:0.599251 277:0.599251 278:0.374532 279:0.898876 280:0.524345 281:0.224719 282:0.599251 283:0.224719 284:0.449438 285:0.299625 286:0.524345 287:0.599251 288:0.299625 289:0.224719 290:0.599251 291:0.449438 292:0.674157 293:0.749064 294:0.82397 295:0.82397 296:1.34831 297:0.973783 298:1.34831 299:1.49813 300:1.64794 301:1.64794 302:1.49813 303:3.5955 304:6.66667 305:11.3109 306:9.96255 307:3.37079 308:3.97004 
-1 -1 -1 -1 -1 -1 -1 -1 1 1 1 1 1 1 1 1 1 1 1 1 1 1 1 1 1 1 1 1 1 1 1 1 1 1 1 1 1 1 1 1 1 1 1 1 1 1 1 1 1 1 1 1 1 1 1 1 1 1 1 1 1 1 1 1 1 1 1 1 1 1 1 1 1 1 1 1 1 1 1 1 1 1 1 1 1 1 1 1 1 1 1 1 1 1 1 1 1 1 1 1 1 1 1 1 1 1 1 1 1 1 1 1 1 1 1 1 1 1 1 1 1 1 1 1 1 1 1 1 1 1 1 1 1 1 1 1 1 1 1 1 1 1 1:0.20979 2:0.0699301 3:0 4:0 5:0.0699301 6:0.13986 7:0.0699301 8:0.0699301 9:0.0699301 10:0.20979 11:0.20979 12:0.41958 13:0.629371 14:0.839161 15:1.32867 16:1.18881 17:0.979021 18:1.04895 19:2.16783 20:2.7972 21:6.22378 22:11.1189 23:12.3776 24:11.4685 25:8.74126 26:6.36364 27:3.84615 28:2.44755 29:2.37762 30:2.51748 31:4.12587 32:6.57343 33:2.23776 34:0.839161 35:1.74825 36:2.44755 37:0.489511 38:0.0699301 39:0.20979 40:0.20979 41:0.20979 42:0.13986 43:0.34965 44:0.20979 45:0.20979 46:0.20979 47:0 48:0 49:0.0699301 50:0.13986 51:0 52:0.13986 53:0 54:0.0699301 55:6.78322 56:2.65734 57:3.07692 58:1.95804 59:1.74825 60:2.16783 61:3.84615 62:2.58741 63:3.28671 64:6.57343 65:8.46154 66:4.68531 67:4.68531 68:3.63636 69:3.28671 70:4.12587 71:4.33566 72:5.03497 73:3.14685 74:2.7972 75:2.02797 76:1.04895 77:1.53846 78:2.16783 79:2.65734 80:3.70629 81:5.87413 82:0.27972 83:0.0699301 84:0.13986 85:0 86:0 87:0.13986 88:0.20979 89:0.489511 90:0.20979 91:3.42657 92:2.65734 93:2.30769 94:2.72727 95:2.93706 96:3.56643 97:2.37762 98:2.7972 99:2.58741 100:2.23776 101:1.53846 102:2.93706 103:3.35664 104:3.4965 105:4.05594 106:4.75524 107:3.91608 108:5.03497 109:3.56643 110:2.44755 111:1.18881 112:0.34965 113:0.13986 114:0.629371 115:1.88811 116:1.46853 117:1.67832 118:1.88811 119:1.3986 120:1.32867 121:1.04895 122:0.909091 123:0.909091 124:0.839161 125:1.11888 126:0.559441 127:1.04895 128:1.25874 129:1.81818 130:2.51748 131:2.37762 132:2.93706 133:3.07692 134:2.37762 135:2.58741 136:0 137:0 138:0 139:0 140:0 141:0 142:0 143:0 144:0 145:0 146:0 147:0 148:0 149:0 150:0 151:0 152:0 153:0 154:0 155:0 156:0 157:0 158:0 159:0 160:0 161:0 162:0 163:0 164:0 165:0 166:0 167:0 168:0 169:0 170:0 171:0 172:0 173:0 174:0 175:0 176:0 177:0 178:0 179:0 180:0 181:0 182:0 183:0 184:0 185:0 186:0 187:0 188:0 189:0 190:0 191:0 192:0 193:0 194:0 195:0 196:0 197:0 198:0 199:0 200:0 201:0 202:0 203:0 204:0 205:0 206:0 207:0 208:0 209:0 210:0 211:0 212:0 213:0 214:0 215:0 216:0 217:0 218:0 219:0 220:0 221:0 222:0 223:0 224:0 225:0 226:0 227:0 228:0 229:0 230:0 231:0 232:0 233:0 234:0 235:0 236:0 237:0 238:0 239:0 240:0 241:0 242:0.0698812 243:0.768693 244:1.95667 245:2.02655 246:2.51572 247:3.49406 248:3.14465 249:3.7037 250:2.72537 251:2.86513 252:2.51572 253:1.39762 254:1.25786 255:0.768693 256:0.908456 257:0.838574 258:0.838574 259:0.698812 260:0.209644 261:0.419287 262:0.698812 263:0.489168 264:0.419287 265:0.838574 266:0.698812 267:0.838574 268:0.908456 269:0.419287 270:0.489168 271:0.349406 272:0.349406 273:0.349406 274:0.489168 275:0.628931 276:0.628931 277:0.55905 278:0.628931 279:0.489168 280:0.838574 281:0.489168 282:0.279525 283:0.419287 284:0.419287 285:0.628931 286:0.628931 287:0.279525 288:0.978337 289:0.279525 290:0.55905 291:0.978337 292:0.838574 293:0.419287 294:0.55905 295:0.838574 296:0.978337 297:1.04822 298:1.60727 299:1.67715 300:0.838574 301:1.32774 302:1.46751 303:2.72537 304:4.12299 305:14.3956 306:9.01469 307:4.54228 308:3.42418 
-1 -1 -1 -1 -1 -1 -1 -1 -1 1 1 1 1 1 1 1 1 1 1 1 1 1 1 1 1 1 1 1 1 1 1 1 1 1 1 1 1 1 1 1 1 1 1 1 1 1 1 1 1 1 1 1 1 1 1 1 1 1 1 1 1 1 1 1 1 1 1 1 1 1 1 1 1 1 1 1 1 1 1 1 1 1 1 1 1 1 1 1 1 1 1 1 1 1 1 1 1 1 1 1 1 1 1 1 1 1 1 1 1 1 1 1 1 1 1 1 1 1 1 1 1 1 1 1 1 1 1 1 1 1 1 1 1 1 1 1 1 1 1 1 1 1 1:0.0719942 2:0 3:0 4:0 5:0.0719942 6:0 7:0 8:0.0719942 9:0.143988 10:0.215983 11:0.50396 12:1.15191 13:0.791937 14:0.647948 15:0.575954 16:0.791937 17:0.719942 18:1.43988 19:2.5198 20:4.82362 21:7.70339 22:8.85529 23:9.71922 24:10.2952 25:11.0871 26:7.34342 27:4.24766 28:3.02376 29:3.7437 30:5.11159 31:7.70339 32:2.73578 33:1.36789 34:0.287977 35:0.719942 36:0.647948 37:0.215983 38:0.143988 39:0.0719942 40:0.215983 41:0.215983 42:0.0719942 43:0 44:0 45:0 46:0.0719942 47:0.143988 48:0.0719942 49:0 50:0.143988 51:0 52:0.215983 53:0 54:2.73578 55:5.18359 56:3.23974 57:2.37581 58:2.23182 59:2.37581 60:3.45572 61:2.80778 62:5.54356 63:7.27142 64:5.18359 65:3.31174 66:2.37581 67:2.30382 68:2.30382 69:2.5198 70:2.73578 71:3.23974 72:4.53564 73:4.89561 74:4.17567 75:4.03168 76:2.80778 77:2.4478 78:2.15983 79:2.08783 80:3.23974 81:5.11159 82:1.72786 83:0.143988 84:0.0719942 85:0 86:0.143988 87:0.143988 88:0.143988 89:0.0719942 90:0.287977 91:3.59971 92:3.16775 93:3.23974 94:3.45572 95:2.59179 96:3.59971 97:2.87977 98:1.79986 99:2.37581 100:2.01584 101:3.09575 102:2.59179 103:2.66379 104:3.38373 105:2.66379 106:3.59971 107:3.88769 108:4.39165 109:4.24766 110:1.43988 111:1.43988 112:0.575954 113:0.215983 114:0.287977 115:1.2959 116:1.51188 117:1.72786 118:2.08783 119:2.23182 120:2.37581 121:1.94384 122:1.65587 123:1.58387 124:0.791937 125:1.36789 126:0.935925 127:0.719942 128:1.94384 129:1.87185 130:1.79986 131:2.15983 132:2.66379 133:2.15983 134:2.15983 135:1.87185 136:0 137:0 138:0 139:0 140:0 141:0 142:0 143:0 144:0 145:0 146:0 147:0 148:0 149:0 150:0 151:0 152:0 153:0 154:0 155:0 156:0 157:0 158:0 159:0 160:0 161:0 162:0 163:0 164:0 165:0 166:0 167:0 168:0 169:0 170:0 171:0 172:0 173:0 174:0 175:0 176:0 177:0 178:0 179:0 180:0 181:0 182:0 183:0 184:0 185:0 186:0 187:0 188:0 189:0 190:0 191:0 192:0 193:0 194:0 195:0 196:0 197:0 198:0 199:0 200:0 201:0 202:0 203:0 204:0 205:0 206:0 207:0 208:0 209:0 210:0 211:0 212:0 213:0 214:0 215:0 216:0 217:0 218:0 219:0 220:0 221:0 222:0 223:0 224:0 225:0 226:0 227:0 228:0 229:0 230:0 231:0 232:0 233:0 234:0 235:0 236:0 237:0 238:0 239:0 240:0 241:0 242:0 243:0.215827 244:0.647482 245:0.57554 246:0.719424 247:1.07914 248:1.00719 249:1.15108 250:0.719424 251:1.36691 252:2.51798 253:3.52518 254:4.60431 255:4.10072 256:2.3741 257:2.08633 258:1.65468 259:1.07914 260:1.15108 261:0.359712 262:0.647482 263:1.15108 264:0.647482 265:0.647482 266:1.07914 267:0.431655 268:1.00719 269:0.863309 270:0.503597 271:0.57554 272:0.503597 273:0.431655 274:0.431655 275:0.28777 276:0.431655 277:0.935252 278:0.57554 279:0.863309 280:0.28777 281:0.503597 282:0.57554 283:0.431655 284:0.431655 285:0.28777 286:0.359712 287:0.503597 288:0.28777 289:0.719424 290:0.215827 291:0.719424 292:0.431655 293:0.863309 294:0.791367 295:0.719424 296:0.791367 297:0.935252 298:1.22302 299:1.72662 300:1.29496 301:2.23022 302:2.3741 303:2.8777 304:6.54676 305:14.6043 306:6.76258 307:4.67625 308:2.8777 
-1 -1 -1 -1 -1 -1 -1 -1 -1 -1 1 1 1 1 1 1 1 1 1 1 1 1 1 1 1 1 1 1 1 1 1 1 1 1 1 1 1 1 1 1 1 1 1 1 1 1 1 1 1 1 1 1 1 1 1 1 1 1 1 1 1 1 1 1 1 1 1 1 1 1 1 1 1 1 1 1 1 1 1 1 1 1 1 1 1 1 1 1 1 1 1 1 1 1 1 1 1 1 1 1 1 1 1 1 1 1 1 1 1 1 1 1 1 1 1 1 1 1 1 1 1 1 1 1 1 1 1 1 1 1 1 1 1 1 1 1 1 1 1 1 1 1 1:0 2:0 3:0.070922 4:0 5:0.070922 6:0 7:0 8:0 9:0.070922 10:0.070922 11:0.35461 12:0.70922 13:0.780142 14:1.2766 15:0.780142 16:0.70922 17:1.63121 18:1.63121 19:2.12766 20:4.32624 21:6.87943 22:9.64538 23:8.79432 24:11.0638 25:10.922 26:7.16312 27:4.1844 28:4.25532 29:4.1844 30:5.88652 31:6.4539 32:1.63121 33:1.41844 34:0.992908 35:0.567376 36:0.283688 37:0.141844 38:0.283688 39:0.141844 40:0.141844 41:0.141844 42:0.070922 43:0.070922 44:0 45:0.141844 46:0.212766 47:0.212766 48:0 49:0.070922 50:0 51:0.212766 52:0.070922 53:0.070922 54:1.48936 55:3.97163 56:4.96454 57:3.04964 58:2.83688 59:4.32624 60:3.82979 61:4.539 62:5.53191 63:5.39007 64:4.11347 65:3.82979 66:2.69504 67:2.05674 68:2.12766 69:2.76596 70:1.77305 71:1.98582 72:3.40425 73:4.04255 74:5.24822 75:3.5461 76:1.84397 77:2.55319 78:2.48227 79:2.83688 80:3.68794 81:4.96454 82:1.34752 83:0.35461 84:0.283688 85:0.141844 86:0.070922 87:0 88:0.425532 89:0.283688 90:0.425532 91:2.55319 92:2.83688 93:3.33333 94:3.47518 95:2.19858 96:3.40425 97:2.97872 98:1.84397 99:1.98582 100:1.77305 101:2.48227 102:2.97872 103:2.76596 104:2.76596 105:2.48227 106:4.11347 107:4.89361 108:3.75886 109:3.47518 110:2.55319 111:1.63121 112:1.2766 113:0.212766 114:0.283688 115:0.425532 116:1.63121 117:1.84397 118:2.12766 119:2.12766 120:1.84397 121:1.34752 122:1.98582 123:1.84397 124:1.2766 125:0.992908 126:1.41844 127:0.851064 128:1.20567 129:1.77305 130:2.69504 131:2.2695 132:2.34043 133:2.76596 134:2.83688 135:2.41135 136:0 137:0 138:0 139:0 140:0 141:0 142:0 143:0 144:0 145:0 146:0 147:0 148:0 149:0 150:0 151:0 152:0 153:0 154:0 155:0 156:0 157:0 158:0 159:0 160:0 161:0 162:0 163:0 164:0 165:0 166:0 167:0 168:0 169:0 170:0 171:0 172:0 173:0 174:0 175:0 176:0 177:0 178:0 179:0 180:0 181:0 182:0 183:0 184:0 185:0 186:0 187:0 188:0 189:0 190:0 191:0 192:0 193:0 194:0 195:0 196:0 197:0 198:0 199:0 200:0 201:0 202:0 203:0 204:0 205:0 206:0 207:0 208:0 209:0 210:0 211:0 212:0 213:0 214:0 215:0 216:0 217:0 218:0 219:0 220:0 221:0 222:0 223:0 224:0 225:0 226:0 227:0 228:0 229:0 230:0 231:0 232:0 233:0 234:0 235:0 236:0 237:0 238:0 239:0 240:0 241:0 242:0 243:0.0708717 244:0.566974 245:0.42523 246:0.708717 247:0.496102 248:0.921332 249:0.921332 250:0.354359 251:0.921332 252:0.708717 253:0.566974 254:0.708717 255:1.41743 256:1.20482 257:1.70092 258:3.47272 259:3.7562 260:3.11836 261:5.31538 262:2.764 263:1.98441 264:0.921332 265:1.13395 266:1.06308 267:0.992204 268:0.850461 269:1.06308 270:0.354359 271:0.637845 272:0.921332 273:0.850461 274:0.921332 275:0.42523 276:0.212615 277:0.637845 278:0.566974 279:0.566974 280:0.42523 281:0.708717 282:0.354359 283:0.42523 284:0.42523 285:0.779589 286:0.708717 287:0.637845 288:0.42523 289:0.42523 290:0.212615 291:0.708717 292:1.06308 293:1.06308 294:0.850461 295:0.779589 296:1.48831 297:1.20482 298:1.13395 299:1.34656 300:1.77179 301:1.98441 302:2.97661 303:6.09497 304:13.6782 305:5.38626 306:3.54359 307:3.40184 308:1.77179 
-1 -1 -1 -1 -1 -1 -1 -1 -1 -1 -1 1 1 1 1 1 1 1 1 1 1 1 1 1 1 1 1 1 1 1 1 1 1 1 1 1 1 1 1 1 1 1 1 1 1 1 1 1 1 1 1 1 1 1 1 1 1 1 1 1 1 1 1 1 1 1 1 1 1 1 1 1 1 1 1 1 1 1 1 1 1 1 1 1 1 1 1 1 1 1 1 1 1 1 1 1 1 1 1 1 1 1 1 1 1 1 1 1 1 1 1 1 1 1 1 1 1 1 1 1 1 1 1 1 1 1 1 1 1 1 1 1 1 1 1 1 1 1 1 1 1 1 1:0 2:0 3:0 4:0.0765111 5:0.0765111 6:0 7:0 8:0 9:0.0765111 10:0.306044 11:0.306044 12:0.841622 13:0.535578 14:0.229533 15:0.994644 16:1.60673 17:1.45371 18:0.994644 19:2.29533 20:3.97858 21:7.19204 22:11.0941 23:9.02831 24:11.3236 25:11.0176 26:8.18668 27:4.20811 28:3.51951 29:3.97858 30:4.89671 31:6.80948 32:2.0658 33:1.14767 34:0.6886 35:0.535578 36:0.0765111 37:0.229533 38:0.0765111 39:0.0765111 40:0 41:0 42:0 43:0.153022 44:0 45:0 46:0.153022 47:0.153022 48:0.382555 49:0.0765111 50:0 51:0.153022 52:0.153022 53:0.6886 54:2.67789 55:4.51416 56:3.443 57:2.83091 58:2.83091 59:3.443 60:3.28998 61:4.8202 62:6.27391 63:6.1974 64:4.28462 65:2.67789 66:2.44836 67:1.91278 68:2.0658 69:2.0658 70:3.51951 71:2.29533 72:3.06045 73:3.90207 74:4.8202 75:3.51951 76:2.83091 77:2.98393 78:1.98929 79:1.83627 80:1.91278 81:5.66182 82:1.98929 83:0.306044 84:0.229533 85:0.459067 86:0.153022 87:0.306044 88:0.0765111 89:0.459067 90:0.229533 91:2.29533 92:2.52487 93:2.14231 94:2.98393 95:2.60138 96:3.59602 97:2.98393 98:2.67789 99:2.14231 100:2.29533 101:3.59602 102:2.83091 103:2.60138 104:3.06045 105:2.90742 106:3.06045 107:3.51951 108:3.13696 109:5.27926 110:2.37184 111:2.21882 112:1.07116 113:0.0765111 114:0.459067 115:1.07116 116:1.53022 117:2.37184 118:1.98929 119:2.44836 120:1.60673 121:1.75976 122:2.37184 123:1.68324 124:1.60673 125:0.6886 126:1.14767 127:0.918133 128:0.841622 129:1.45371 130:2.98393 131:2.37184 132:2.21882 133:1.98929 134:2.29533 135:2.29533 136:0 137:0 138:0 139:0 140:0 141:0 142:0 143:0 144:0 145:0 146:0 147:0 148:0 149:0 150:0 151:0 152:0 153:0 154:0 155:0 156:0 157:0 158:0 159:0 160:0 161:0 162:0 163:0 164:0 165:0 166:0 167:0 168:0 169:0 170:0 171:0 172:0 173:0 174:0 175:0 176:0 177:0 178:0 179:0 180:0 181:0 182:0 183:0 184:0 185:0 186:0 187:0 188:0 189:0 190:0 191:0 192:0 193:0 194:0 195:0 196:0 197:0 198:0 199:0 200:0 201:0 202:0 203:0 204:0 205:0 206:0 207:0 208:0 209:0 210:0 211:0 212:0 213:0 214:0 215:0 216:0 217:0 218:0 219:0 220:0 221:0 222:0 223:0 224:0 225:0 226:0 227:0 228:0 229:0 230:0 231:0 232:0 233:0 234:0 235:0 236:0 237:0 238:0 239:0 240:0 241:0 242:0 243:0 244:0.152905 245:0.535168 246:0.458716 247:0.764526 248:0.535168 249:0.611621 250:0.764526 251:0.688073 252:0.458716 253:0.30581 254:0.611621 255:0.840979 256:0.382263 257:0.840979 258:0.458716 259:0.764526 260:0.917431 261:0.764526 262:1.29969 263:1.29969 264:3.44037 265:4.05199 266:4.58715 267:2.98165 268:2.9052 269:1.98777 270:0.917431 271:1.29969 272:0.993884 273:0.764526 274:0.688073 275:0.382263 276:0.535168 277:0.764526 278:0.30581 279:0.611621 280:0.917431 281:0.764526 282:1.22324 283:0.458716 284:1.29969 285:0.535168 286:0.229358 287:0.458716 288:0.535168 289:0.688073 290:0.611621 291:0.458716 292:0.764526 293:1.37615 294:0.917431 295:1.37615 296:1.22324 297:1.52905 298:1.68196 299:2.67584 300:2.44648 301:5.9633 302:7.56881 303:10.9327 304:4.5107 305:3.0581 306:1.98777 307:1.52905 308:1.6055 
-1 -1 -1 -1 -1 -1 -1 -1 -1 -1 -1 -1 1 1 1 1 1 1 1 1 1 1 1 1 1 1 1 1 1 1 1 1 1 1 1 1 1 1 1 1 1 1 1 1 1 1 1 1 1 1 1 1 1 1 1 1 1 1 1 1 1 1 1 1 1 1 1 1 1 1 1 1 1 1 1 1 1 1 1 1 1 1 1 1 1 1 1 1 1 1 1 1 1 1 1 1 1 1 1 1 1 1 1 1 1 1 1 1 1 1 1 1 1 1 1 1 1 1 1 1 1 1 1 1 1 1 1 1 1 1 1 1 1 1 1 1 1 1 1 1 1 1 1:0 2:0 3:0 4:0 5:0 6:0 7:0.079936 8:0 9:0 10:0.079936 11:0.39968 12:0.719424 13:0.39968 14:0.39968 15:1.1191 16:1.67866 17:1.27898 18:1.59872 19:1.91846 20:3.19744 21:9.27258 22:11.7506 23:10.2318 24:14.6283 25:9.91207 26:5.67546 27:3.35731 28:2.8777 29:2.71783 30:3.59712 31:6.47482 32:3.9968 33:1.43885 34:0.39968 35:0.079936 36:0.159872 37:0.39968 38:0.239808 39:0 40:0 41:0 42:0 43:0 44:0 45:0 46:0.079936 47:0.079936 48:0.319744 49:0.079936 50:0 51:0 52:0.159872 53:1.03917 54:4.39648 55:3.35731 56:2.39808 57:1.51878 58:1.75859 59:2.07834 60:2.63789 61:4.31655 62:5.19584 63:8.55316 64:5.43565 65:3.35731 66:2.8777 67:2.63789 68:3.03757 69:2.47802 70:1.9984 71:2.55795 72:3.51719 73:6.79456 74:3.9968 75:3.27738 76:2.95763 77:1.83853 78:2.23821 79:1.9984 80:1.51878 81:2.63789 82:4.39648 83:1.35891 84:0.479616 85:0.159872 86:0.079936 87:0 88:0.319744 89:0 90:0.159872 91:1.35891 92:1.83853 93:1.35891 94:2.07834 95:2.47802 96:2.8777 97:1.9984 98:2.23821 99:2.23821 100:2.63789 101:2.55795 102:2.79776 103:2.95763 104:2.71783 105:2.71783 106:3.35731 107:4.31655 108:4.23661 109:4.55635 110:2.71783 111:1.43885 112:0.879296 113:0.239808 114:0.479616 115:1.43885 116:2.63789 117:3.03757 118:2.79776 119:2.63789 120:1.83853 121:2.8777 122:1.51878 123:2.31815 124:1.1191 125:1.59872 126:1.43885 127:1.59872 128:1.75859 129:1.43885 130:2.15827 131:2.79776 132:1.67866 133:2.15827 134:2.23821 135:1.91846 136:0 137:0 138:0 139:0 140:0 141:0 142:0 143:0 144:0 145:0 146:0 147:0 148:0 149:0 150:0 151:0 152:0 153:0 154:0 155:0 156:0 157:0 158:0 159:0 160:0 161:0 162:0 163:0 164:0 165:0 166:0 167:0 168:0 169:0 170:0 171:0 172:0 173:0 174:0 175:0 176:0 177:0 178:0 179:0 180:0 181:0 182:0 183:0 184:0 185:0 186:0 187:0 188:0 189:0 190:0 191:0 192:0 193:0 194:0 195:0 196:0 197:0 198:0 199:0 200:0 201:0 202:0 203:0 204:0 205:0 206:0 207:0 208:0 209:0 210:0 211:0 212:0 213:0 214:0 215:0 216:0 217:0 218:0 219:0 220:0 221:0 222:0 223:0 224:0 225:0 226:0 227:0 228:0 229:0 230:0 231:0 232:0 233:0 234:0 235:0 236:0 237:0 238:0 239:0 240:0 241:0 242:0 243:0.0798722 244:0.0798722 245:0.399361 246:0.638978 247:0.71885 248:0.319489 249:0.479233 250:0 251:0.399361 252:0.159744 253:0.159744 254:0.319489 255:0.159744 256:0.798722 257:0.399361 258:0.239617 259:0.71885 260:0.638978 261:0.638978 262:1.4377 263:0.878594 264:1.4377 265:0.71885 266:0.878594 267:0.878594 268:0.958466 269:1.99681 270:4.3131 271:7.02875 272:3.51438 273:1.27796 274:1.35783 275:1.03834 276:1.03834 277:0.71885 278:0.878594 279:0.638978 280:0.638978 281:0.71885 282:0.71885 283:0.319489 284:0.399361 285:0.638978 286:0.239617 287:0.798722 288:0.798722 289:0.638978 290:0.71885 291:1.03834 292:0.71885 293:1.35783 294:1.11821 295:1.75719 296:1.59744 297:2.71565 298:2.63578 299:3.83386 300:9.26517 301:11.0224 302:6.86901 303:3.11502 304:1.67732 305:2.31629 306:1.99681 307:1.27796 308:0.71885 
-1 -1 -1 -1 -1 -1 -1 -1 -1 -1 -1 -1 -1 1 1 1 1 1 1 1 1 1 1 1 1 1 1 1 1 1 1 1 1 1 1 1 1 1 1 1 1 1 1 1 1 1 1 1 1 1 1 1 1 1 1 1 1 1 1 1 1 1 1 1 1 1 1 1 1 1 1 1 1 1 1 1 1 1 1 1 1 1 1 1 1 1 1 1 1 1 1 1 1 1 1 1 1 1 1 1 1 1 1 1 1 1 1 1 1 1 1 1 1 1 1 1 1 1 1 1 1 1 1 1 1 1 1 1 1 1 1 1 1 1 1 1 1 1 1 1 1 1 1:0.181159 2:0 3:0.0603865 4:0 5:0 6:0 7:0.0603865 8:0 9:0 10:0.0603865 11:0.483092 12:0.603865 13:0.483092 14:0.664251 15:0.724638 16:1.3285 17:1.63043 18:1.38889 19:1.69082 20:4.83092 21:8.0918 22:12.5 23:10.0846 24:10.9904 25:11.2923 26:6.88406 27:3.92512 28:3.50241 29:3.01932 30:4.16666 31:7.12561 32:1.38889 33:1.02657 34:0.603865 35:0.483092 36:0.181159 37:0.181159 38:0.181159 39:0.0603865 40:0 41:0 42:0 43:0.0603865 44:0.120773 45:0 46:0.241546 47:0.120773 48:0.241546 49:0.0603865 50:0.301932 51:0.241546 52:0.181159 53:1.69082 54:5.25362 55:2.35507 56:2.05314 57:0.543478 58:1.44928 59:2.59662 60:3.14009 61:3.32125 62:5.7971 63:4.22705 64:3.62319 65:2.2343 66:2.2343 67:1.50966 68:2.89855 69:1.93237 70:2.11353 71:3.20048 72:4.04589 73:5.43478 74:9.29953 75:4.77053 76:4.52898 77:3.62319 78:2.29468 79:1.69082 80:2.05314 81:2.89855 82:3.74396 83:0.966184 84:0.120773 85:0.181159 86:0.120773 87:0.120773 88:0 89:0.362319 90:0.241546 91:2.47584 92:2.17391 93:1.57005 94:2.83816 95:2.17391 96:2.71739 97:2.05314 98:1.93237 99:0.966184 100:2.59662 101:2.41546 102:2.17391 103:2.2343 104:2.11353 105:2.11353 106:3.62319 107:3.80435 108:4.64976 109:4.71014 110:4.22705 111:2.2343 112:0.785024 113:0.120773 114:0.845411 115:1.38889 116:1.87198 117:2.89855 118:2.89855 119:3.07971 120:1.57005 121:2.2343 122:2.2343 123:1.20773 124:1.02657 125:1.3285 126:1.38889 127:1.75121 128:1.20773 129:1.3285 130:2.59662 131:2.657 132:1.99275 133:2.47584 134:1.81159 135:3.5628 136:0 137:0 138:0 139:0 140:0 141:0 142:0 143:0 144:0 145:0 146:0 147:0 148:0 149:0 150:0 151:0 152:0 153:0 154:0 155:0 156:0 157:0 158:0 159:0 160:0 161:0 162:0 163:0 164:0 165:0 166:0 167:0 168:0 169:0 170:0 171:0 172:0 173:0 174:0 175:0 176:0 177:0 178:0 179:0 180:0 181:0.18105 182:0 183:0 184:0 185:0 186:0 187:0 188:0 189:0 190:0 191:0 192:0 193:0 194:0 195:0 196:0 197:0 198:0 199:0 200:0 201:0 202:0 203:0 204:0 205:0 206:0 207:0 208:0 209:0 210:0 211:0 212:0 213:0 214:0 215:0 216:0 217:0 218:0 219:0 220:0 221:0 222:0 223:0 224:0 225:0 226:0 227:0 228:0 229:0 230:0 231:0 232:0 233:0 234:0 235:0 236:0 237:0 238:0.06035 239:0.18105 240:0.2414 241:0.18105 242:0.18105 243:0 244:0.1207 245:0.1207 246:0.18105 247:0.2414 248:0.3621 249:0.3621 250:0.18105 251:0.54315 252:0.4828 253:0.844901 254:0.42245 255:0.784551 256:0.66385 257:0.54315 258:0.18105 259:0.30175 260:0.6035 261:0.3621 262:0.4828 263:0.54315 264:0.6035 265:0.4828 266:0.18105 267:0.30175 268:0.66385 269:0.4828 270:0.42245 271:0.3621 272:0.6035 273:0.4828 274:0.3621 275:0.4828 276:0.844901 277:1.0863 278:0.965601 279:0.784551 280:1.26735 281:4.3452 282:8.75075 283:4.04345 284:2.47435 285:1.5691 286:1.9312 287:1.3277 288:1.5691 289:1.26735 290:0.66385 291:0.66385 292:1.6898 293:1.50875 294:2.95715 295:6.94025 296:15.3893 297:9.11285 298:4.52625 299:2.35365 300:1.207 301:1.26735 302:0.7242 303:0.54315 304:0.42245 305:0.4828 306:0.6035 307:0.3621 308:1.5691 
-1 -1 -1 -1 -1 -1 -1 -1 -1 -1 -1 -1 -1 -1 1 1 1 1 1 1 1 1 1 1 1 1 1 1 1 1 1 1 1 1 1 1 1 1 1 1 1 1 1 1 1 1 1 1 1 1 1 1 1 1 1 1 1 1 1 1 1 1 1 1 1 1 1 1 1 1 1 1 1 1 1 1 1 1 1 1 1 1 1 1 1 1 1 1 1 1 1 1 1 1 1 1 1 1 1 1 1 1 1 1 1 1 1 1 1 1 1 1 1 1 1 1 1 1 1 1 1 1 1 1 1 1 1 1 1 1 1 1 1 1 1 1 1 1 1 1 1 1 1:0.101112 2:0 3:0 4:0.0505561 5:0 6:0 7:0 8:0 9:0 10:0.0505561 11:0.101112 12:0.505561 13:0.758342 14:0.960566 15:0.707786 16:1.11223 17:1.76946 18:1.41557 19:3.18504 20:4.80283 21:7.98787 22:11.9313 23:9.55511 24:9.04955 25:9.10011 26:8.13954 27:5.66229 28:4.85339 29:5.91507 30:6.52174 31:2.0728 32:1.51668 33:1.41557 34:0.606673 35:0.101112 36:0.0505561 37:0 38:0 39:0 40:0.0505561 41:0 42:0 43:0 44:0 45:0 46:0.202224 47:0.303337 48:0.303337 49:0.353893 50:0.353893 51:0.353893 52:0.303337 53:0.455005 54:2.12336 55:4.4995 56:4.90395 57:3.58949 58:2.0728 59:2.17391 60:3.94338 61:4.19616 62:2.93226 63:2.78059 64:2.27502 65:2.32558 66:1.87058 67:1.46613 68:1.66835 69:1.92113 70:2.02224 71:2.22447 72:2.12336 73:3.03337 74:4.4995 75:7.02731 76:6.01618 77:3.43782 78:4.09505 79:4.9545 80:5.81396 81:3.18504 82:2.17391 83:0.65723 84:0.202224 85:0.202224 86:0.0505561 87:0.101112 88:0.252781 89:0.252781 90:0.353893 91:2.78059 92:2.22447 93:2.52781 94:2.73003 95:2.42669 96:2.62892 97:3.18504 98:2.57836 99:1.6178 100:2.73003 101:2.93226 102:1.36501 103:2.17391 104:2.47725 105:2.8817 106:2.98281 107:3.74115 108:3.94338 109:4.19616 110:3.43782 111:1.87058 112:0.455005 113:0.101112 114:0.202224 115:0.606673 116:1.11223 117:2.12336 118:2.37614 119:2.83114 120:2.0728 121:1.71891 122:1.66835 123:1.51668 124:1.6178 125:1.2639 126:1.71891 127:1.76946 128:1.41557 129:2.02224 130:2.83114 131:1.87058 132:2.22447 133:3.13448 134:3.18504 135:2.78059 136:0 137:0 138:0 139:0 140:0 141:0 142:0 143:0 144:0 145:0 146:0 147:0 148:0 149:0 150:0 151:0 152:0 153:0 154:0 155:0 156:0 157:0 158:0 159:0 160:0 161:0 162:0 163:0 164:0 165:0 166:0 167:0 168:0 169:0 170:0 171:0 172:0 173:0 174:0 175:0 176:0 177:0 178:0 179:0 180:0 181:0.0505306 182:0 183:0 184:0 185:0 186:0 187:0 188:0 189:0 190:0 191:0 192:0 193:0 194:0 195:0 196:0 197:0 198:0 199:0 200:0 201:0 202:0 203:0 204:0 205:0 206:0 207:0 208:0 209:0 210:0 211:0 212:0 213:0 214:0 215:0 216:0 217:0 218:0 219:0 220:0 221:0 222:0 223:0 224:0 225:0 226:0 227:0 228:0 229:0 230:0 231:0 232:0 233:0 234:0 235:0 236:0 237:0 238:0 239:0.0505306 240:0 241:0.202122 242:0.0505306 243:0.202122 244:0.101061 245:0.252653 246:0.101061 247:0.0505306 248:0.202122 249:0.353714 250:0.85902 251:0.404245 252:0.656897 253:0.505306 254:0.454775 255:0.454775 256:0.303183 257:0.606367 258:0.757959 259:0.555836 260:0.353714 261:0.555836 262:0.555836 263:0.252653 264:0.505306 265:0.606367 266:0.656897 267:0.606367 268:0.303183 269:0.606367 270:0.90955 271:0.454775 272:0.707428 273:0.555836 274:0.757959 275:0.606367 276:1.26326 277:1.11167 278:2.42547 279:3.99192 280:3.99192 281:6.01314 282:4.34563 283:2.476 284:2.27388 285:1.86963 286:1.51592 287:1.01061 288:1.1622 289:0.960081 290:1.56645 291:1.21273 292:1.41486 293:1.31379 294:2.27388 295:5.20465 296:5.65942 297:8.18594 298:6.56897 299:5.70995 300:1.8191 301:1.06114 302:1.11167 303:1.21273 304:1.1622 305:1.31379 306:0.808489 307:0.707428 308:1.11167 
-1 -1 -1 -1 -1 -1 -1 -1 -1 -1 -1 -1 -1 -1 -1 1 1 1 1 1 1 1 1 1 1 1 1 1 1 1 1 1 1 1 1 1 1 1 1 1 1 1 1 1 1 1 1 1 1 1 1 1 1 1 1 1 1 1 1 1 1 1 1 1 1 1 1 1 1 1 1 1 1 1 1 1 1 1 1 1 1 1 1 1 1 1 1 1 1 1 1 1 1 1 1 1 1 1 1 1 1 1 1 1 1 1 1 1 1 1 1 1 1 1 1 1 1 1 1 1 1 1 1 1 1 1 1 1 1 1 1 1 1 1 1 1 1 1 1 1 1 1 1:0.0503018 2:0 3:0 4:0 5:0.0503018 6:0 7:0 8:0 9:0.0503018 10:0.0503018 11:0.0503018 12:0.603622 13:0.55332 14:0.905432 15:0.855131 16:1.00604 17:1.20724 18:1.45875 19:3.11871 20:5.4829 21:7.7968 22:11.9718 23:9.15494 24:9.80886 25:9.65796 26:7.19317 27:5.63381 28:4.27565 29:4.52716 30:7.69619 31:2.8672 32:1.40845 33:1.10664 34:1.15694 35:0.251509 36:0 37:0.0503018 38:0 39:0 40:0.0503018 41:0 42:0 43:0 44:0 45:0 46:0.402415 47:0.452716 48:0.301811 49:0.301811 50:0.100604 51:0.201207 52:0.251509 53:0.402415 54:1.81086 55:4.62777 56:3.62173 57:2.7666 58:3.06841 59:2.61569 60:3.11871 61:4.47686 62:4.22535 63:2.7163 64:2.11268 65:1.96177 66:1.96177 67:1.40845 68:1.91147 69:1.81086 70:2.16298 71:2.21328 72:3.31992 73:3.11871 74:5.3823 75:6.58955 76:4.07445 77:4.52716 78:4.42656 79:4.12475 80:5.03018 81:4.37626 82:1.81086 83:0.704225 84:0.201207 85:0.100604 86:0.301811 87:0.150905 88:0.301811 89:0.100604 90:0.402415 91:2.41449 92:2.8169 93:2.7163 94:2.46479 95:2.41449 96:2.8169 97:2.61569 98:2.06237 99:2.46479 100:2.01207 101:2.31388 102:1.81086 103:2.16298 104:2.46479 105:2.51509 106:3.62173 107:3.62173 108:4.17505 109:4.22535 110:4.17505 111:1.30785 112:0.503018 113:0.0503018 114:0.55332 115:1.10664 116:1.40845 117:2.31388 118:2.46479 119:2.7163 120:2.11268 121:1.86117 122:1.81086 123:1.71026 124:1.10664 125:1.10664 126:1.05634 127:2.16298 128:1.65996 129:2.21328 130:2.06237 131:2.41449 132:2.56539 133:2.51509 134:2.56539 135:2.8169 136:0 137:0 138:0 139:0 140:0 141:0 142:0 143:0 144:0 145:0 146:0 147:0 148:0 149:0 150:0 151:0 152:0 153:0 154:0 155:0 156:0 157:0 158:0 159:0 160:0 161:0 162:0 163:0 164:0 165:0 166:0 167:0 168:0 169:0 170:0 171:0 172:0 173:0 174:0 175:0 176:0 177:0 178:0 179:0 180:0 181:0.0502765 182:0 183:0 184:0 185:0 186:0 187:0 188:0 189:0 190:0 191:0 192:0 193:0 194:0 195:0 196:0 197:0 198:0 199:0 200:0 201:0 202:0 203:0 204:0 205:0 206:0 207:0 208:0 209:0 210:0 211:0 212:0 213:0 214:0 215:0 216:0 217:0 218:0 219:0 220:0 221:0 222:0 223:0 224:0 225:0 226:0 227:0 228:0 229:0 230:0 231:0 232:0 233:0 234:0 235:0 236:0 237:0 238:0 239:0 240:0.0502765 241:0 242:0.15083 243:0.0502765 244:0.251383 245:0.15083 246:0.301659 247:0.402212 248:0.251383 249:0.553042 250:0.351936 251:0.402212 252:0.653595 253:0.603318 254:0.603318 255:0.653595 256:0.553042 257:0.201106 258:0.553042 259:0.452489 260:0.754148 261:0.502765 262:0.653595 263:0.603318 264:0.201106 265:0.653595 266:0.553042 267:0.301659 268:0.653595 269:0.653595 270:0.854701 271:0.703871 272:1.20664 273:1.55857 274:1.91051 275:2.91604 276:4.0724 277:4.62544 278:3.61991 279:2.96631 280:1.96078 281:1.20664 282:2.21217 283:1.40774 284:0.653595 285:0.955254 286:1.40774 287:0.804424 288:1.25691 289:0.955254 290:1.05581 291:0.955254 292:0.804424 293:1.55857 294:1.05581 295:1.60885 296:2.5641 297:4.62544 298:7.03873 299:9.15035 300:7.29011 301:2.91604 302:2.46355 303:1.40774 304:1.45802 305:1.20664 306:1.30719 307:0.502765 308:1.00553 
-1 -1 -1 -1 -1 -1 -1 -1 -1 -1 -1 -1 -1 -1 -1 -1 1 1 1 1 1 1 1 1 1 1 1 1 1 1 1 1 1 1 1 1 1 1 1 1 1 1 1 1 1 1 1 1 1 1 1 1 1 1 1 1 1 1 1 1 1 1 1 1 1 1 1 1 1 1 1 1 1 1 1 1 1 1 1 1 1 1 1 1 1 1 1 1 1 1 1 1 1 1 1 1 1 1 1 1 1 1 1 1 1 1 1 1 1 1 1 1 1 1 1 1 1 1 1 1 1 1 1 1 1 1 1 1 1 1 1 1 1 1 1 1 1 1 1 1 1 1 1:0.100654 2:0 3:0 4:0 5:0 6:0 7:0.0503271 8:0 9:0 10:0 11:0.201309 12:0.654253 13:0.251636 14:1.30851 15:0.855561 16:0.70458 17:1.30851 18:1.56014 19:3.32159 20:3.87519 21:8.90792 22:12.7831 23:10.3674 24:9.36086 25:9.56217 26:7.34777 27:4.73075 28:2.9693 29:3.87519 30:5.48566 31:6.08959 32:1.45949 33:1.56014 34:0.805234 35:0.402617 36:0.0503271 37:0.100654 38:0 39:0 40:0 41:0 42:0 43:0 44:0 45:0 46:0.251636 47:0.201309 48:0.35229 49:0.35229 50:0.100654 51:0.251636 52:0.150981 53:0.603926 54:2.91897 55:4.98239 56:2.26472 57:2.26472 58:2.56668 59:3.17061 60:2.26472 61:3.12028 62:5.28435 63:3.22094 64:2.56668 65:2.51636 66:1.81178 67:2.26472 68:2.06341 69:1.61047 70:2.61701 71:1.96276 72:3.12028 73:4.68042 74:8.30399 75:4.93206 76:3.67388 77:5.33468 78:3.37192 79:2.31505 80:3.27126 81:5.53599 82:2.11374 83:0.452944 84:0.0503271 85:0.150981 86:0.150981 87:0.201309 88:0.150981 89:0.301963 90:0.201309 91:2.61701 92:2.71766 93:2.71766 94:2.46603 95:2.46603 96:3.17061 97:2.61701 98:2.16407 99:1.96276 100:2.21439 101:1.81178 102:1.76145 103:2.16407 104:1.76145 105:2.66734 106:3.62355 107:4.93206 108:3.47257 109:4.37846 110:2.86865 111:2.46603 112:0.754907 113:0.0503271 114:0.654253 115:1.45949 116:1.91243 117:2.31505 118:2.71766 119:2.51636 120:2.51636 121:1.76145 122:2.16407 123:1.40916 124:0.855561 125:1.50981 126:1.40916 127:1.25818 128:1.15752 129:1.76145 130:2.36538 131:1.71112 132:2.4157 133:2.9693 134:3.01963 135:2.36538 136:0 137:0 138:0 139:0 140:0 141:0 142:0 143:0 144:0 145:0 146:0 147:0 148:0 149:0 150:0 151:0 152:0 153:0 154:0 155:0 156:0 157:0 158:0 159:0 160:0 161:0 162:0 163:0 164:0 165:0 166:0 167:0 168:0 169:0 170:0 171:0 172:0 173:0 174:0 175:0 176:0 177:0 178:0 179:0 180:0 181:0.100604 182:0 183:0 184:0 185:0 186:0 187:0 188:0 189:0 190:0 191:0 192:0 193:0 194:0 195:0 196:0 197:0 198:0 199:0 200:0 201:0 202:0 203:0 204:0 205:0 206:0 207:0 208:0 209:0 210:0 211:0 212:0 213:0 214:0 215:0 216:0 217:0 218:0 219:0 220:0 221:0 222:0 223:0 224:0 225:0 226:0 227:0 228:0 229:0 230:0 231:0 232:0 233:0 234:0 235:0 236:0 237:0 238:0 239:0 240:0 241:0.150905 242:0.100604 243:0.201207 244:0.352113 245:0.150905 246:0.201207 247:0.301811 248:0.301811 249:0.503018 250:0.503018 251:0.352113 252:0.754527 253:0.503018 254:0.251509 255:0.704225 256:0.452716 257:0.352113 258:0.503018 259:1.10664 260:0.804829 261:0.503018 262:0.503018 263:0.402415 264:0.55332 265:0.855131 266:0.452716 267:0.503018 268:1.05634 269:1.00604 270:1.60966 271:2.666 272:5.08049 273:5.98592 274:4.32596 275:1.86117 276:1.45875 277:1.45875 278:0.905432 279:1.00604 280:1.00604 281:0.754527 282:0.251509 283:0.55332 284:0.402415 285:0.704225 286:0.603622 287:0.55332 288:0.603622 289:0.855131 290:0.905432 291:0.603622 292:0.955734 293:1.20724 294:0.704225 295:1.25754 296:1.96177 297:1.55936 298:2.36418 299:3.82294 300:8.70223 301:13.9839 302:5.93562 303:2.7666 304:1.65996 305:0.955734 306:0.704225 307:1.45875 308:1.35815 
-1 -1 -1 -1 -1 -1 -1 -1 -1 -1 -1 -1 -1 -1 -1 -1 -1 1 1 1 1 1 1 1 1 1 1 1 1 1 1 1 1 1 1 1 1 1 1 1 1 1 1 1 1 1 1 1 1 1 1 1 1 1 1 1 1 1 1 1 1 1 1 1 1 1 1 1 1 1 1 1 1 1 1 1 1 1 1 1 1 1 1 1 1 1 1 1 1 1 1 1 1 1 1 1 1 1 1 1 1 1 1 1 1 1 1 1 1 1 1 1 1 1 1 1 1 1 1 1 1 1 1 1 1 1 1 1 1 1 1 1 1 1 1 1 1 1 1 1 1 1 1:0.0482859 2:0 3:0.0482859 4:0.0482859 5:0.0482859 6:0 7:0 8:0.0482859 9:0.193143 10:0.193143 11:0.338001 12:0.193143 13:0.531144 14:0.869145 15:1.20715 16:1.11057 17:1.352 18:1.54515 19:2.84887 20:5.35974 21:7.33946 22:12.1197 23:8.98117 24:8.98117 25:8.69146 26:8.83632 27:5.98745 28:3.62144 29:5.74602 30:6.80832 31:3.81459 32:1.15886 33:0.820859 34:0.434573 35:0.434573 36:0 37:0.0965717 38:0.0965717 39:0 40:0 41:0 42:0 43:0 44:0.0482859 45:0.0482859 46:0.386287 47:0.289715 48:0.338001 49:0.193143 50:0.289715 51:0.193143 52:0.193143 53:0.241429 54:1.88315 55:3.71801 56:5.11831 57:2.65572 58:3.04201 59:2.51087 60:3.28344 61:4.4423 62:4.15259 63:2.94544 64:2.02801 65:1.64172 66:2.12458 67:1.88315 68:1.352 69:1.78658 70:2.12458 71:2.12458 72:2.36601 73:3.71801 74:5.45631 75:7.43603 76:4.39402 77:4.00773 78:5.26316 79:3.47658 80:5.21488 81:4.1043 82:2.22115 83:0.144858 84:0.241429 85:0.144858 86:0.144858 87:0.144858 88:0.0965717 89:0.338001 90:0.193143 91:2.84887 92:2.26944 93:2.46258 94:3.47658 95:2.26944 96:2.70401 97:2.65572 98:2.99372 99:2.70401 100:2.07629 101:1.78658 102:2.31772 103:2.55915 104:2.36601 105:2.70401 106:3.4283 107:4.58716 108:4.24916 109:3.86287 110:3.62144 111:1.20715 112:0.289715 113:0.0482859 114:0.386287 115:0.627716 116:1.30372 117:1.69 118:2.22115 119:2.65572 120:1.78658 121:1.93143 122:1.83486 123:2.12458 124:1.49686 125:1.25543 126:1.25543 127:1.69 128:1.59343 129:1.83486 130:2.70401 131:2.12458 132:2.22115 133:2.55915 134:2.7523 135:2.51087 136:0 137:0 138:0 139:0 140:0 141:0 142:0 143:0 144:0 145:0 146:0 147:0 148:0 149:0 150:0 151:0 152:0 153:0 154:0 155:0 156:0 157:0 158:0 159:0 160:0 161:0 162:0 163:0 164:0 165:0 166:0 167:0 168:0 169:0 170:0 171:0 172:0 173:0 174:0 175:0 176:0 177:0 178:0 179:0 180:0 181:0 182:0 183:0 184:0 185:0 186:0 187:0 188:0 189:0 190:0 191:0 192:0 193:0 194:0 195:0 196:0 197:0 198:0 199:0 200:0 201:0 202:0 203:0 204:0 205:0 206:0 207:0 208:0 209:0 210:0 211:0 212:0 213:0 214:0 215:0 216:0 217:0 218:0 219:0 220:0 221:0 222:0 223:0 224:0 225:0 226:0 227:0 228:0 229:0 230:0 231:0 232:0 233:0 234:0 235:0 236:0 237:0 238:0 239:0 240:0 241:0 242:0.0965251 243:0.144788 244:0.0482625 245:0.289575 246:0.19305 247:0.434363 248:0.530888 249:0.530888 250:0.675676 251:0.3861 252:0.482625 253:0.530888 254:0.434363 255:0.627413 256:0.57915 257:0.530888 258:0.530888 259:0.868726 260:0.820463 261:1.06178 262:1.64093 263:1.73745 264:1.83398 265:2.46139 266:2.89575 267:3.57143 268:3.04054 269:3.37838 270:3.52317 271:2.12355 272:1.25483 273:1.30309 274:0.675676 275:0.916988 276:0.820463 277:0.530888 278:0.772201 279:0.675676 280:0.820463 281:0.482625 282:0.627413 283:0.675676 284:0.57915 285:0.482625 286:0.675676 287:0.57915 288:0.723938 289:1.06178 290:0.723938 291:0.482625 292:0.482625 293:0.723938 294:0.965251 295:0.723938 296:1.59266 297:1.25483 298:1.30309 299:1.78571 300:3.04054 301:4.87452 302:10.5212 303:6.12935 304:7.81854 305:3.42664 306:1.64093 307:1.78571 308:1.06178 
-1 -1 -1 -1 -1 -1 -1 -1 -1 -1 -1 -1 -1 -1 -1 -1 -1 -1 1 1 1 1 1 1 1 1 1 1 1 1 1 1 1 1 1 1 1 1 1 1 1 1 1 1 1 1 1 1 1 1 1 1 1 1 1 1 1 1 1 1 1 1 1 1 1 1 1 1 1 1 1 1 1 1 1 1 1 1 1 1 1 1 1 1 1 1 1 1 1 1 1 1 1 1 1 1 1 1 1 1 1 1 1 1 1 1 1 1 1 1 1 1 1 1 1 1 1 1 1 1 1 1 1 1 1 1 1 1 1 1 1 1 1 1 1 1 1 1 1 1 1 1 1:0.102459 2:0 3:0 4:0.0512295 5:0.0512295 6:0.0512295 7:0 8:0.0512295 9:0.153689 10:0.204918 11:0.358607 12:0.461066 13:0.563525 14:0.922131 15:0.768443 16:1.17828 17:1.3832 18:1.33197 19:2.76639 20:5.17418 21:7.17213 22:11.8852 23:9.52868 24:9.98975 25:8.24795 26:9.32377 27:4.96926 28:3.4836 29:4.25205 30:5.89139 31:6.14754 32:1.63934 33:1.07582 34:0.358607 35:0.153689 36:0.204918 37:0.0512295 38:0.0512295 39:0 40:0 41:0 42:0 43:0.0512295 44:0 45:0 46:0.461066 47:0.512295 48:0.307377 49:0.153689 50:0.102459 51:0.153689 52:0.358607 53:0.204918 54:1.7418 55:5.7377 56:2.56147 57:2.76639 58:2.35656 59:2.97131 60:3.02254 61:3.53483 62:5.17418 63:2.92008 64:2.6127 65:2.15164 66:2.15164 67:1.53688 68:1.84426 69:1.58811 70:2.51024 71:2.66393 72:3.32992 73:4.04713 74:7.01844 75:6.35246 76:3.89344 77:3.63729 78:3.89344 79:3.02254 80:4.20082 81:4.96926 82:1.94672 83:0.512295 84:0.204918 85:0.102459 86:0.102459 87:0.204918 88:0.204918 89:0.256148 90:0.0512295 91:2.81762 92:2.71516 93:2.20287 94:2.71516 95:3.27869 96:2.76639 97:3.07377 98:2.20287 99:2.30533 100:1.7418 101:2.45902 102:2.40779 103:1.99795 104:2.2541 105:2.45902 106:3.4836 107:4.35451 108:4.30328 109:4.40574 110:3.07377 111:1.94672 112:0.563525 113:0.204918 114:0.563525 115:0.819672 116:1.84426 117:2.20287 118:2.2541 119:2.35656 120:1.79303 121:1.53688 122:1.79303 123:1.99795 124:1.07582 125:0.97336 126:0.819672 127:1.7418 128:1.48566 129:2.40779 130:2.2541 131:2.35656 132:2.86885 133:1.99795 134:1.99795 135:3.17623 136:0 137:0 138:0 139:0 140:0 141:0 142:0 143:0 144:0 145:0 146:0 147:0 148:0 149:0 150:0 151:0 152:0 153:0 154:0 155:0 156:0 157:0 158:0 159:0 160:0 161:0 162:0 163:0 164:0 165:0 166:0 167:0 168:0 169:0 170:0 171:0 172:0 173:0 174:0 175:0 176:0 177:0 178:0 179:0 180:0 181:0.0512033 182:0 183:0 184:0 185:0 186:0 187:0 188:0 189:0 190:0 191:0 192:0 193:0 194:0 195:0 196:0 197:0 198:0 199:0 200:0 201:0 202:0 203:0 204:0 205:0 206:0 207:0 208:0 209:0 210:0 211:0 212:0 213:0 214:0 215:0 216:0 217:0 218:0 219:0 220:0 221:0 222:0 223:0 224:0 225:0 226:0 227:0 228:0 229:0 230:0 231:0 232:0 233:0 234:0 235:0 236:0 237:0 238:0 239:0 240:0 241:0 242:0.15361 243:0.204813 244:0.256016 245:0.30722 246:0.512033 247:0.512033 248:0.819252 249:0.30722 250:0.460829 251:0.409626 252:0.256016 253:0.563236 254:0.614439 255:0.819252 256:0.716846 257:1.48489 258:2.35535 259:3.27701 260:4.50589 261:4.91551 262:3.68663 263:2.30415 264:1.89452 265:1.07527 266:0.921659 267:0.819252 268:0.716846 269:0.665642 270:0.870456 271:0.768049 272:0.563236 273:0.512033 274:0.614439 275:0.358423 276:0.256016 277:0.15361 278:0.870456 279:0.665642 280:0.256016 281:0.358423 282:0.614439 283:0.665642 284:0.409626 285:0.819252 286:0.563236 287:0.665642 288:0.563236 289:0.665642 290:0.768049 291:0.665642 292:0.768049 293:0.819252 294:0.665642 295:1.07527 296:0.870456 297:0.819252 298:1.12647 299:2.04813 300:1.94572 301:2.50896 302:2.76498 303:6.298 304:10.9063 305:9.42141 306:5.06912 307:2.71377 308:1.94572 
-1 -1 -1 -1 -1 -1 -1 -1 -1 -1 -1 -1 -1 -1 -1 -1 -1 -1 -1 1 1 1 1 1 1 1 1 1 1 1 1 1 1 1 1 1 1 1 1 1 1 1 1 1 1 1 1 1 1 1 1 1 1 1 1 1 1 1 1 1 1 1 1 1 1 1 1 1 1 1 1 1 1 1 1 1 1 1 1 1 1 1 1 1 1 1 1 1 1 1 1 1 1 1 1 1 1 1 1 1 1 1 1 1 1 1 1 1 1 1 1 1 1 1 1 1 1 1 1 1 1 1 1 1 1 1 1 1 1 1 1 1 1 1 1 1 1 1 1 1 1 1 1:0.0578704 2:0 3:0 4:0 5:0 6:0 7:0.0578704 8:0.115741 9:0.0578704 10:0.173611 11:0.173611 12:0.462963 13:0.868056 14:0.810185 15:0.925926 16:1.5625 17:1.15741 18:2.02546 19:2.48843 20:3.64583 21:7.75463 22:10.9375 23:11.0532 24:13.5416 25:12.3842 26:5.09259 27:3.24074 28:3.125 29:2.19907 30:3.41435 31:5.20833 32:5.61343 33:0.810185 34:0.115741 35:0.289352 36:0.347222 37:0.0578704 38:0.0578704 39:0.0578704 40:0 41:0.0578704 42:0.0578704 43:0 44:0 45:0.0578704 46:0.173611 47:0.115741 48:0.0578704 49:0.462963 50:0.173611 51:0.173611 52:0.0578704 53:1.79398 54:4.80324 55:2.37269 56:1.85185 57:1.50463 58:1.67824 59:1.50463 60:1.62037 61:2.71991 62:3.76157 63:3.99306 64:5.78704 65:4.39815 66:2.83565 67:2.5463 68:2.43056 69:3.00926 70:3.35648 71:4.62963 72:6.59722 73:8.3912 74:4.51389 75:3.87732 76:1.96759 77:1.85185 78:1.73611 79:1.96759 80:1.85185 81:2.71991 82:4.6875 83:1.33102 84:0.0578704 85:0.173611 86:0 87:0 88:0.289352 89:0.0578704 90:0.173611 91:1.85185 92:2.48843 93:2.43056 94:2.02546 95:2.48843 96:2.60417 97:2.43056 98:2.19907 99:1.85185 100:1.50463 101:2.1412 102:2.60417 103:2.66204 104:2.77778 105:3.18287 106:2.95139 107:3.58796 108:6.01852 109:4.45602 110:3.64583 111:2.08333 112:1.38889 113:0.173611 114:0.462963 115:0.868056 116:2.1412 117:2.77778 118:2.83565 119:2.48843 120:1.90972 121:1.79398 122:1.09954 123:1.15741 124:1.15741 125:0.983796 126:1.5625 127:1.50463 128:0.810185 129:2.19907 130:2.25694 131:2.1412 132:1.62037 133:2.31482 134:2.5463 135:3.87732 136:0 137:0 138:0 139:0 140:0 141:0 142:0 143:0 144:0 145:0 146:0 147:0 148:0 149:0 150:0 151:0 152:0 153:0 154:0 155:0 156:0 157:0 158:0 159:0 160:0 161:0 162:0 163:0 164:0 165:0 166:0 167:0 168:0 169:0 170:0 171:0 172:0 173:0 174:0 175:0 176:0 177:0 178:0 179:0 180:0 181:0 182:0 183:0 184:0 185:0 186:0 187:0 188:0 189:0 190:0 191:0 192:0 193:0 194:0 195:0 196:0 197:0 198:0 199:0 200:0 201:0 202:0 203:0 204:0 205:0 206:0 207:0 208:0 209:0 210:0 211:0 212:0 213:0 214:0 215:0 216:0 217:0 218:0 219:0 220:0 221:0 222:0 223:0 224:0 225:0 226:0 227:0 228:0 229:0 230:0 231:0 232:0 233:0 234:0 235:0 236:0 237:0 238:0 239:0 240:0 241:0.0578369 242:0.0578369 243:0.289185 244:0.115674 245:0.289185 246:0.404858 247:0.520532 248:0.92539 249:1.0989 250:0.404858 251:0.867553 252:0.809717 253:1.50376 254:3.47022 255:8.21285 256:3.93291 257:0.983227 258:0.983227 259:1.38809 260:1.0989 261:1.04106 262:0.636206 263:0.462695 264:0.694043 265:0.636206 266:0.289185 267:0.636206 268:0.231348 269:0.231348 270:0.520532 271:0.404858 272:0.404858 273:0.578369 274:0.462695 275:0.173511 276:0.578369 277:0.289185 278:0.289185 279:0.462695 280:0.520532 281:0.404858 282:0.578369 283:0.520532 284:0.289185 285:0.578369 286:0.694043 287:0.520532 288:0.578369 289:0.636206 290:0.75188 291:0.347021 292:0.809717 293:0.636206 294:0.404858 295:0.867553 296:0.92539 297:1.67727 298:1.50376 299:1.21457 300:1.5616 301:1.85078 302:2.1978 303:2.31348 304:7.63448 305:12.9554 306:11.1047 307:5.37884 308:4.10642 
-1 -1 -1 -1 -1 -1 -1 -1 -1 -1 -1 -1 -1 -1 -1 -1 -1 -1 -1 -1 1 1 1 1 1 1 1 1 1 1 1 1 1 1 1 1 1 1 1 1 1 1 1 1 1 1 1 1 1 1 1 1 1 1 1 1 1 1 1 1 1 1 1 1 1 1 1 1 1 1 1 1 1 1 1 1 1 1 1 1 1 1 1 1 1 1 1 1 1 1 1 1 1 1 1 1 1 1 1 1 1 1 1 1 1 1 1 1 1 1 1 1 1 1 1 1 1 1 1 1 1 1 1 1 1 1 1 1 1 1 1 1 1 1 1 1 1 1 1 1 1 1 1:0.207577 2:0.207577 3:0.155682 4:0.311365 5:0.0518941 6:0.103788 7:0.0518941 8:0.155682 9:0.103788 10:0.311365 11:0.311365 12:0.207577 13:0.415153 14:0.985988 15:0.778412 16:1.29735 17:1.19357 18:1.55682 19:1.86819 20:2.43903 21:6.85003 22:12.2989 23:12.9735 24:12.5065 25:9.60042 26:3.78827 27:3.5807 28:2.80228 29:2.17955 30:3.16554 31:4.98184 32:6.85003 33:1.14167 34:0.674624 35:0.778412 36:1.08978 37:0.259471 38:0.207577 39:0.363259 40:0.207577 41:0.311365 42:0.259471 43:0.103788 44:0.259471 45:0.103788 46:0.467047 47:0.363259 48:0.207577 49:0.207577 50:0.311365 51:0.155682 52:0.207577 53:0.103788 54:3.47691 55:4.87805 56:2.02387 57:1.45304 58:1.86819 59:2.23145 60:1.71251 61:1.29735 62:3.21744 63:3.32123 64:5.39699 65:3.47691 66:3.5807 67:3.21744 68:2.95797 69:3.21744 70:3.78827 71:7.83602 72:8.66633 73:3.94396 74:3.21744 75:3.32123 76:1.97198 77:2.12766 78:1.8163 79:2.33524 80:2.54281 81:4.98184 82:3.06176 83:0.0518941 84:0.155682 85:0.259471 86:0.0518941 87:0.103788 88:0.103788 89:0.155682 90:0.207577 91:2.59471 92:2.43903 93:2.17955 94:2.23145 95:2.23145 96:2.43903 97:2.59471 98:1.34925 99:2.17955 100:2.12766 101:2.23145 102:2.23145 103:2.02387 104:2.80228 105:3.16554 106:3.99585 107:4.30722 108:4.98184 109:5.03373 110:3.47691 111:1.7644 112:0.8822 113:0.259471 114:0.674624 115:1.55682 116:2.49092 117:2.6466 118:1.97198 119:1.60872 120:2.02387 121:1.34925 122:0.778412 123:0.934094 124:1.14167 125:1.40114 126:1.03788 127:0.726518 128:1.66061 129:2.59471 130:2.6466 131:2.38713 132:2.38713 133:3.00986 134:2.02387 135:3.47691 136:0 137:0 138:0 139:0 140:0 141:0 142:0 143:0 144:0 145:0 146:0 147:0 148:0 149:0 150:0 151:0 152:0 153:0 154:0 155:0 156:0 157:0 158:0 159:0 160:0 161:0 162:0 163:0 164:0 165:0 166:0 167:0 168:0 169:0 170:0 171:0 172:0 173:0 174:0 175:0 176:0 177:0 178:0 179:0 180:0 181:0.103734 182:0 183:0 184:0 185:0 186:0 187:0 188:0 189:0 190:0 191:0 192:0 193:0 194:0 195:0 196:0 197:0 198:0 199:0 200:0 201:0 202:0 203:0 204:0 205:0 206:0 207:0 208:0 209:0 210:0 211:0 212:0 213:0 214:0 215:0 216:0 217:0 218:0 219:0 220:0 221:0 222:0 223:0 224:0 225:0 226:0 227:0 228:0 229:0 230:0 231:0 232:0 233:0 234:0 235:0 236:0 237:0 238:0 239:0 240:0 241:0 242:0.103734 243:0.985477 244:0.881743 245:1.08921 246:1.34855 247:3.0083 248:4.25311 249:4.77178 250:4.51245 251:2.90457 252:1.86722 253:1.14108 254:0.674274 255:1.14108 256:0.622407 257:0.570539 258:0.778008 259:1.24481 260:0.570539 261:0.518672 262:0.570539 263:0.311203 264:0.570539 265:0.622407 266:0.363071 267:0.155602 268:0.207469 269:0.207469 270:0.207469 271:0.363071 272:0.363071 273:0.518672 274:0.622407 275:0.363071 276:0.881743 277:0.570539 278:0.622407 279:0.518672 280:0.622407 281:0.726141 282:0.466805 283:0.518672 284:0.726141 285:0.414938 286:0.363071 287:0.466805 288:0.414938 289:0.674274 290:0.570539 291:0.570539 292:0.570539 293:0.466805 294:0.466805 295:0.726141 296:0.622407 297:0.674274 298:1.34855 299:0.726141 300:1.14108 301:1.34855 302:1.81535 303:2.33403 304:4.25311 305:11.3589 306:14.7822 307:6.01659 308:3.68257 
-1 -1 -1 -1 -1 -1 -1 -1 -1 -1 -1 -1 -1 -1 -1 -1 -1 -1 -1 -1 -1 1 1 1 1 1 1 1 1 1 1 1 1 1 1 1 1 1 1 1 1 1 1 1 1 1 1 1 1 1 1 1 1 1 1 1 1 1 1 1 1 1 1 1 1 1 1 1 1 1 1 1 1 1 1 1 1 1 1 1 1 1 1 1 1 1 1 1 1 1 1 1 1 1 1 1 1 1 1 1 1 1 1 1 1 1 1 1 1 1 1 1 1 1 1 1 1 1 1 1 1 1 1 1 1 1 1 1 1 1 1 1 1 1 1 1 1 1 1 1 1 1 1:0.0500751 2:0.150225 3:0 4:0.250376 5:0.0500751 6:0.0500751 7:0.10015 8:0.10015 9:0.0500751 10:0.10015 11:0.450676 12:0.751127 13:0.650976 14:0.801202 15:0.901352 16:1.30195 17:1.15173 18:1.55233 19:1.4021 20:2.15323 21:4.90736 22:12.669 23:13.8708 24:16.4247 25:7.01051 26:3.95593 27:3.4051 28:2.50375 29:2.003 30:1.8027 31:2.90435 32:6.91036 33:2.50375 34:0.801202 35:1.6024 36:2.05308 37:0.650976 38:0.851277 39:0.250376 40:0.150225 41:0.150225 42:0.2003 43:0.150225 44:0.10015 45:0.2003 46:0.250376 47:0.0500751 48:0.150225 49:0.150225 50:0.0500751 51:0.10015 52:0.10015 53:0.250376 54:2.95443 55:4.30646 56:2.4036 57:2.25338 58:1.35203 59:1.65248 60:1.8027 61:2.2033 62:2.45368 63:4.20631 64:4.70706 65:9.56435 66:8.61292 67:4.55683 68:2.90435 69:3.0045 70:4.50676 71:5.50826 72:3.55533 73:3.30495 74:1.95293 75:1.85278 76:2.30345 77:1.65248 78:1.70255 79:2.2033 80:2.25338 81:4.70706 82:3.45518 83:0 84:0.10015 85:0 86:0.300451 87:0.10015 88:0.10015 89:0.150225 90:0.300451 91:2.65398 92:2.65398 93:2.50375 94:2.4036 95:2.4036 96:3.10465 97:2.70405 98:2.003 99:2.30345 100:2.10315 101:1.70255 102:2.15323 103:3.05458 104:2.50375 105:3.75563 106:4.00601 107:4.85728 108:6.30946 109:5.00751 110:4.85728 111:1.65248 112:0.400601 113:0.300451 114:0.701052 115:1.95293 116:1.8027 117:2.2033 118:1.75263 119:1.65248 120:1.45218 121:1.2018 122:0.300451 123:0.300451 124:0.500751 125:0.851277 126:0.450676 127:1.10165 128:1.65248 129:2.003 130:2.4036 131:2.10315 132:2.8042 133:2.65398 134:2.2033 135:2.6039 136:0 137:0 138:0 139:0 140:0 141:0 142:0 143:0 144:0 145:0 146:0 147:0 148:0 149:0 150:0 151:0 152:0 153:0 154:0 155:0 156:0 157:0 158:0 159:0 160:0 161:0 162:0 163:0 164:0 165:0 166:0 167:0 168:0 169:0 170:0 171:0 172:0 173:0 174:0 175:0 176:0 177:0 178:0 179:0 180:0 181:0.0500501 182:0 183:0 184:0 185:0 186:0 187:0 188:0 189:0 190:0 191:0 192:0 193:0 194:0 195:0 196:0 197:0 198:0 199:0 200:0 201:0 202:0 203:0 204:0 205:0 206:0 207:0 208:0 209:0 210:0 211:0 212:0 213:0 214:0 215:0 216:0 217:0 218:0 219:0 220:0 221:0 222:0 223:0 224:0 225:0 226:0 227:0 228:0 229:0 230:0 231:0 232:0 233:0 234:0 235:0 236:0 237:0 238:0 239:0 240:0 241:0 242:0.0500501 243:2.15215 244:1.2012 245:1.1011 246:1.9019 247:3.85385 248:4.004 249:3.55355 250:3.5035 251:2.3023 252:1.95195 253:1.001 254:0.850851 255:0.850851 256:0.700701 257:0.800801 258:0.700701 259:0.850851 260:0.550551 261:0.500501 262:0.35035 263:0.600601 264:0.550551 265:0.550551 266:0.15015 267:0.2002 268:0.550551 269:0.600601 270:0.35035 271:0.45045 272:0.35035 273:0.35035 274:0.700701 275:0.550551 276:0.600601 277:0.45045 278:0.650651 279:0.550551 280:0.650651 281:0.35035 282:0.4004 283:0.600601 284:0.3003 285:0.2002 286:0.4004 287:0.900901 288:0.700701 289:0.700701 290:0.600601 291:0.850851 292:0.750751 293:0.550551 294:0.600601 295:0.750751 296:0.750751 297:0.700701 298:0.900901 299:0.800801 300:1.55155 301:1.1011 302:2.002 303:2.4024 304:3.7037 305:9.20922 306:16.7167 307:7.35737 308:2.5025 
-1 -1 -1 -1 -1 -1 -1 -1 -1 -1 -1 -1 -1 -1 -1 -1 -1 -1 -1 -1 -1 -1 1 1 1 1 1 1 1 1 1 1 1 1 1 1 1 1 1 1 1 1 1 1 1 1 1 1 1 1 1 1 1 1 1 1 1 1 1 1 1 1 1 1 1 1 1 1 1 1 1 1 1 1 1 1 1 1 1 1 1 1 1 1 1 1 1 1 1 1 1 1 1 1 1 1 1 1 1 1 1 1 1 1 1 1 1 1 1 1 1 1 1 1 1 1 1 1 1 1 1 1 1 1 1 1 1 1 1 1 1 1 1 1 1 1 1 1 1 1 1 1 1:0.287356 2:0.0957854 3:0.0478927 4:0.0478927 5:0.0478927 6:0.0478927 7:0.143678 8:0.0957854 9:0.0478927 10:0.191571 11:0.335249 12:0.957854 13:0.143678 14:1.43678 15:0.814176 16:1.19732 17:1.14942 18:0.814176 19:2.10728 20:4.45402 21:9.05171 22:10.7758 23:8.95593 24:10.9195 25:10.1532 26:5.36398 27:3.92721 28:3.73563 29:3.49617 30:6.03448 31:6.80076 32:2.01149 33:1.14942 34:0.622605 35:0.52682 36:1.05364 37:0.239464 38:0.0957854 39:0.0957854 40:0.0478927 41:0.0957854 42:0.143678 43:0.0957854 44:0.0957854 45:0.0957854 46:0.478927 47:0.0957854 48:0.191571 49:0.0957854 50:0.143678 51:0.0957854 52:0.0478927 53:0.143678 54:1.72414 55:4.93295 56:3.11303 57:2.96935 58:3.11303 59:3.16092 60:4.54981 61:3.83142 62:6.5134 63:7.8065 64:3.83142 65:2.68199 66:2.72989 67:2.10728 68:1.67624 69:1.9636 70:2.44253 71:2.92146 72:2.92146 73:4.31035 74:4.88506 75:2.92146 76:2.72989 77:2.77778 78:1.91571 79:2.72989 80:3.54406 81:5.79502 82:1.00575 83:0.239464 84:0.191571 85:0.143678 86:0.143678 87:0.0478927 88:0.191571 89:0.0957854 90:0.0957854 91:2.68199 92:3.11303 93:2.82567 94:2.29885 95:2.72989 96:2.77778 97:1.86782 98:1.58046 99:1.91571 100:1.62835 101:2.20306 102:2.58621 103:2.68199 104:2.96935 105:3.20881 106:3.01724 107:4.26245 108:3.40038 109:3.83142 110:2.77778 111:1.24521 112:0.622605 113:0.143678 114:0.52682 115:0.909961 116:1.341 117:2.44253 118:2.05939 119:2.68199 120:2.34674 121:2.20306 122:2.05939 123:1.43678 124:0.574713 125:0.909961 126:1.24521 127:1.72414 128:2.39464 129:2.39464 130:2.44253 131:3.01724 132:3.06514 133:2.44253 134:2.53831 135:2.92146 136:0 137:0 138:0 139:0 140:0 141:0 142:0 143:0 144:0 145:0 146:0 147:0 148:0 149:0 150:0 151:0 152:0 153:0 154:0 155:0 156:0 157:0 158:0 159:0 160:0 161:0 162:0 163:0 164:0 165:0 166:0 167:0 168:0 169:0 170:0 171:0 172:0 173:0 174:0 175:0 176:0 177:0 178:0 179:0 180:0 181:0.191479 182:0 183:0 184:0 185:0 186:0 187:0 188:0 189:0 190:0 191:0 192:0 193:0 194:0 195:0 196:0 197:0 198:0 199:0 200:0 201:0 202:0 203:0 204:0 205:0 206:0 207:0 208:0 209:0 210:0 211:0 212:0 213:0 214:0 215:0 216:0 217:0 218:0 219:0 220:0 221:0 222:0 223:0 224:0 225:0 226:0 227:0 228:0 229:0 230:0 231:0 232:0 233:0 234:0 235:0 236:0 237:0 238:0 239:0 240:0 241:0 242:0.0478698 243:0.478698 244:0.526568 245:0.574438 246:0.430828 247:0.765917 248:1.10101 249:1.24461 250:1.14888 251:1.5797 252:2.34562 253:3.97319 254:4.93058 255:5.40928 256:3.1594 257:2.0584 258:1.38822 259:0.861656 260:1.14888 261:1.24461 262:1.10101 263:0.430828 264:0.287219 265:0.335089 266:0.478698 267:0.574438 268:0.335089 269:0.526568 270:0.335089 271:0.622307 272:0.670177 273:0.478698 274:0.622307 275:0.574438 276:0.287219 277:0.574438 278:0.430828 279:0.478698 280:0.287219 281:0.526568 282:0.191479 283:0.670177 284:0.382958 285:0.239349 286:0.335089 287:0.478698 288:0.622307 289:0.574438 290:0.239349 291:0.765917 292:0.670177 293:0.909526 294:0.765917 295:0.957396 296:1.19674 297:1.24461 298:0.765917 299:1.43609 300:0.909526 301:1.34035 302:1.62757 303:1.62757 304:5.16993 305:16.4193 306:9.38246 307:4.49975 308:2.01053 
-1 -1 -1 -1 -1 -1 -1 -1 -1 -1 -1 -1 -1 -1 -1 -1 -1 -1 -1 -1 -1 -1 -1 1 1 1 1 1 1 1 1 1 1 1 1 1 1 1 1 1 1 1 1 1 1 1 1 1 1 1 1 1 1 1 1 1 1 1 1 1 1 1 1 1 1 1 1 1 1 1 1 1 1 1 1 1 1 1 1 1 1 1 1 1 1 1 1 1 1 1 1 1 1 1 1 1 1 1 1 1 1 1 1 1 1 1 1 1 1 1 1 1 1 1 1 1 1 1 1 1 1 1 1 1 1 1 1 1 1 1 1 1 1 1 1 1 1 1 1 1 1 1 1:0.0493583 2:0 3:0 4:0.148075 5:0 6:0.0987167 7:0.0493583 8:0 9:0 10:0.148075 11:0.29615 12:0.789734 13:0.493583 14:1.13524 15:0.88845 16:1.13524 17:1.33268 18:1.28332 19:1.97433 20:5.42942 21:7.20632 22:10.9576 23:9.97039 24:10.4146 25:10.6614 26:7.15696 27:4.09674 28:3.60316 29:3.99803 30:5.82429 31:6.21915 32:1.72754 33:0.88845 34:0.789734 35:0.394867 36:0.394867 37:0.0493583 38:0.0493583 39:0.0987167 40:0.0987167 41:0.148075 42:0 43:0 44:0 45:0.0493583 46:0.345508 47:0.0493583 48:0.0493583 49:0.0987167 50:0.0987167 51:0.197433 52:0.0493583 53:0.5923 54:2.31984 55:4.98519 56:3.06022 57:2.81343 58:3.15894 59:4.24482 60:3.80059 61:4.63969 62:7.30504 63:6.02172 64:3.45509 65:2.81343 66:3.30701 67:1.57947 68:2.22113 69:1.43139 70:2.31984 71:1.82626 72:3.25765 73:3.40573 74:4.54097 75:3.65252 76:2.91214 77:2.22113 78:2.51728 79:2.31984 80:3.35637 81:5.77493 82:2.02369 83:0.197433 84:0.29615 85:0.148075 86:0.197433 87:0.0987167 88:0.0987167 89:0.0987167 90:0.148075 91:2.56663 92:2.3692 93:3.20829 94:3.20829 95:2.56663 96:2.86278 97:2.91214 98:1.48075 99:1.87562 100:2.41856 101:2.12241 102:2.91214 103:1.82626 104:2.12241 105:2.91214 106:3.50444 107:3.70188 108:5.5775 109:4.44225 110:3.80059 111:1.72754 112:0.394867 113:0.148075 114:0.345508 115:1.43139 116:1.28332 117:2.07305 118:1.87562 119:2.17177 120:2.3692 121:1.82626 122:2.31984 123:1.38203 124:1.03653 125:1.08588 126:1.03653 127:1.72754 128:1.62883 129:1.92498 130:2.81343 131:1.67818 132:2.3692 133:2.22113 134:2.12241 135:2.66535 136:0 137:0 138:0 139:0 140:0 141:0 142:0 143:0 144:0 145:0 146:0 147:0 148:0 149:0 150:0 151:0 152:0 153:0 154:0 155:0 156:0 157:0 158:0 159:0 160:0 161:0 162:0 163:0 164:0 165:0 166:0 167:0 168:0 169:0 170:0 171:0 172:0 173:0 174:0 175:0 176:0 177:0 178:0 179:0 180:0 181:0.049334 182:0 183:0 184:0 185:0 186:0 187:0 188:0 189:0 190:0 191:0 192:0 193:0 194:0 195:0 196:0 197:0 198:0 199:0 200:0 201:0 202:0 203:0 204:0 205:0 206:0 207:0 208:0 209:0 210:0 211:0 212:0 213:0 214:0 215:0 216:0 217:0 218:0 219:0 220:0 221:0 222:0 223:0 224:0 225:0 226:0 227:0 228:0 229:0 230:0 231:0 232:0 233:0 234:0 235:0 236:0 237:0 238:0 239:0 240:0 241:0 242:0.049334 243:0.098668 244:0.197336 245:0.542674 246:0.394672 247:0.197336 248:0.592008 249:0.542674 250:0.444006 251:0.690676 252:0.888012 253:0.838678 254:0.49334 255:0.98668 256:0.888012 257:1.57869 258:2.07203 259:2.66404 260:2.91071 261:3.30538 262:4.34139 263:3.25605 264:1.97336 265:1.77602 266:1.57869 267:1.43069 268:0.592008 269:0.74001 270:0.838678 271:0.592008 272:0.542674 273:0.592008 274:0.690676 275:0.49334 276:0.444006 277:0.690676 278:0.690676 279:0.24667 280:0.49334 281:0.296004 282:0.444006 283:0.394672 284:0.444006 285:0.641342 286:0.641342 287:0.49334 288:0.690676 289:0.641342 290:0.592008 291:0.49334 292:0.690676 293:0.838678 294:0.74001 295:0.838678 296:1.33202 297:0.98668 298:0.888012 299:1.62802 300:1.23335 301:1.77602 302:3.20671 303:6.56143 304:17.2175 305:6.41342 306:3.20671 307:2.36803 308:1.87469 
